{"learner":{"attributes":{"scikit_learn":"{\"_estimator_type\": \"regressor\"}"},"feature_names":[],"feature_types":[],"gradient_booster":{"model":{"cats":{"enc":[],"feature_segments":[],"sorted_idx":[]},"gbtree_model_param":{"num_parallel_tree":"1","num_trees":"400"},"iteration_indptr":[0,1,2,3,4,5,6,7,8,9,10,11,12,13,14,15,16,17,18,19,20,21,22,23,24,25,26,27,28,29,30,31,32,33,34,35,36,37,38,39,40,41,42,43,44,45,46,47,48,49,50,51,52,53,54,55,56,57,58,59,60,61,62,63,64,65,66,67,68,69,70,71,72,73,74,75,76,77,78,79,80,81,82,83,84,85,86,87,88,89,90,91,92,93,94,95,96,97,98,99,100,101,102,103,104,105,106,107,108,109,110,111,112,113,114,115,116,117,118,119,120,121,122,123,124,125,126,127,128,129,130,131,132,133,134,135,136,137,138,139,140,141,142,143,144,145,146,147,148,149,150,151,152,153,154,155,156,157,158,159,160,161,162,163,164,165,166,167,168,169,170,171,172,173,174,175,176,177,178,179,180,181,182,183,184,185,186,187,188,189,190,191,192,193,194,195,196,197,198,199,200,201,202,203,204,205,206,207,208,209,210,211,212,213,214,215,216,217,218,219,220,221,222,223,224,225,226,227,228,229,230,231,232,233,234,235,236,237,238,239,240,241,242,243,244,245,246,247,248,249,250,251,252,253,254,255,256,257,258,259,260,261,262,263,264,265,266,267,268,269,270,271,272,273,274,275,276,277,278,279,280,281,282,283,284,285,286,287,288,289,290,291,292,293,294,295,296,297,298,299,300,301,302,303,304,305,306,307,308,309,310,311,312,313,314,315,316,317,318,319,320,321,322,323,324,325,326,327,328,329,330,331,332,333,334,335,336,337,338,339,340,341,342,343,344,345,346,347,348,349,350,351,352,353,354,355,356,357,358,359,360,361,362,363,364,365,366,367,368,369,370,371,372,373,374,375,376,377,378,379,380,381,382,383,384,385,386,387,388,389,390,391,392,393,394,395,396,397,398,399,400],"tree_info":[0,0,0,0,0,0,0,0,0,0,0,0,0,0,0,0,0,0,0,0,0,0,0,0,0,0,0,0,0,0,0,0,0,0,0,0,0,0,0,0,0,0,0,0,0,0,0,0,0,0,0,0,0,0,0,0,0,0,0,0,0,0,0,0,0,0,0,0,0,0,0,0,0,0,0,0,0,0,0,0,0,0,0,0,0,0,0,0,0,0,0,0,0,0,0,0,0,0,0,0,0,0,0,0,0,0,0,0,0,0,0,0,0,0,0,0,0,0,0,0,0,0,0,0,0,0,0,0,0,0,0,0,0,0,0,0,0,0,0,0,0,0,0,0,0,0,0,0,0,0,0,0,0,0,0,0,0,0,0,0,0,0,0,0,0,0,0,0,0,0,0,0,0,0,0,0,0,0,0,0,0,0,0,0,0,0,0,0,0,0,0,0,0,0,0,0,0,0,0,0,0,0,0,0,0,0,0,0,0,0,0,0,0,0,0,0,0,0,0,0,0,0,0,0,0,0,0,0,0,0,0,0,0,0,0,0,0,0,0,0,0,0,0,0,0,0,0,0,0,0,0,0,0,0,0,0,0,0,0,0,0,0,0,0,0,0,0,0,0,0,0,0,0,0,0,0,0,0,0,0,0,0,0,0,0,0,0,0,0,0,0,0,0,0,0,0,0,0,0,0,0,0,0,0,0,0,0,0,0,0,0,0,0,0,0,0,0,0,0,0,0,0,0,0,0,0,0,0,0,0,0,0,0,0,0,0,0,0,0,0,0,0,0,0,0,0,0,0,0,0,0,0,0,0,0,0,0,0,0,0,0,0,0,0,0,0,0,0,0,0,0,0,0,0,0,0,0,0,0,0,0,0,0,0,0,0,0,0,0,0,0,0,0,0,0,0,0,0,0,0],"trees":[{"base_weights":[4.4296887E4,-5.204291E5,8.65546E4,-7.242988E5,-9.659109E4,-3.9897316E4,-1.887586E4,-1.3350859E4,4.899138E3],"categories":[],"categories_nodes":[],"categories_segments":[],"categories_sizes":[],"default_left":[0,0,0,0,0,0,0,0,0],"id":0,"left_children":[1,3,-1,5,7,-1,-1,-1,-1],"loss_changes":[2.2810181E13,1.4853782E12,0E0,5.237113E9,2.5828632E11,0E0,0E0,0E0,0E0],"parents":[2147483647,0,0,1,1,3,3,4,4],"right_children":[2,4,-1,6,8,-1,-1,-1,-1],"split_conditions":[1.3E2,5E0,8.65546E4,1E0,8.7E1,-3.9897316E4,-1.887586E4,-1.3350859E4,4.899138E3],"split_indices":[0,8,0,16,0,0,0,0,0],"split_type":[0,0,0,0,0,0,0,0,0],"sum_hessian":[2.2E1,1.7E1,5E0,1.1E1,6E0,8E0,3E0,3E0,3E0],"tree_param":{"num_deleted":"0","num_feature":"19","num_nodes":"9","size_leaf_vector":"1"}},{"base_weights":[1.3699494E5,-3.5083688E5,8.294816E4,-3.1774082E4,1.1998483E5,-1.5173549E4,3.0965422E4],"categories":[],"categories_nodes":[],"categories_segments":[],"categories_sizes":[],"default_left":[0,0,0,0,0,0,0],"id":1,"left_children":[1,3,-1,-1,5,-1,-1],"loss_changes":[1.8401175E13,2.6225693E12,0E0,0E0,1.8794739E12,0E0,0E0],"parents":[2147483647,0,0,1,1,4,4],"right_children":[2,4,-1,-1,6,-1,-1],"split_conditions":[1.3E2,5E0,8.294816E4,-3.1774082E4,8.7E1,-1.5173549E4,3.0965422E4],"split_indices":[0,8,0,0,0,0,0],"split_type":[0,0,0,0,0,0,0],"sum_hessian":[2.3E1,1.8E1,5E0,1.1E1,7E0,4E0,3E0],"tree_param":{"num_deleted":"0","num_feature":"19","num_nodes":"7","size_leaf_vector":"1"}},{"base_weights":[-1.2502988E5,-5.447471E5,8.521852E5,-3.0556926E4,-1.3822916E4,6.7088266E4,7.477941E3],"categories":[],"categories_nodes":[],"categories_segments":[],"categories_sizes":[],"default_left":[0,0,0,0,0,0,0],"id":2,"left_children":[1,3,5,-1,-1,-1,-1],"loss_changes":[9.487614E12,1.1603909E11,2.2072698E12,0E0,0E0,0E0,0E0],"parents":[2147483647,0,0,1,1,2,2],"right_children":[2,4,6,-1,-1,-1,-1],"split_conditions":[9.4E1,8E1,4E0,-3.0556926E4,-1.3822916E4,6.7088266E4,7.477941E3],"split_indices":[0,0,5,0,0,0,0],"split_type":[0,0,0,0,0,0,0],"sum_hessian":[2.1E1,1.5E1,6E0,1.1E1,4E0,3E0,3E0],"tree_param":{"num_deleted":"0","num_feature":"19","num_nodes":"7","size_leaf_vector":"1"}},{"base_weights":[-6.2928703E4,-4.980459E5,7.3523484E4,-3.4368496E4,-2.6344494E5,-3.675972E5,-3.2471404E3,-9.024349E3,-2.3140404E4],"categories":[],"categories_nodes":[],"categories_segments":[],"categories_sizes":[],"default_left":[0,0,0,0,0,0,0,0,0],"id":3,"left_children":[1,3,-1,-1,5,7,-1,-1,-1],"loss_changes":[1.807977E13,7.516434E11,0E0,0E0,2.0354603E11,4.1173647E10,0E0,0E0,0E0],"parents":[2147483647,0,0,1,1,4,4,5,5],"right_children":[2,4,-1,-1,6,8,-1,-1,-1],"split_conditions":[1.3E2,1E0,7.3523484E4,-3.4368496E4,1E0,2E0,-3.2471404E3,-9.024349E3,-2.3140404E4],"split_indices":[0,12,0,0,18,3,0,0,0],"split_type":[0,0,0,0,0,0,0,0,0],"sum_hessian":[2.5E1,2E1,5E0,1E1,1E1,6E0,4E0,3E0,3E0],"tree_param":{"num_deleted":"0","num_feature":"19","num_nodes":"9","size_leaf_vector":"1"}},{"base_weights":[1.2781901E4,-5.426954E5,1.2610081E6,-3.3226754E4,-1.2814972E4,9.259193E4,1.0360898E4],"categories":[],"categories_nodes":[],"categories_segments":[],"categories_sizes":[],"default_left":[0,0,0,0,0,0,0],"id":4,"left_children":[1,3,5,-1,-1,-1,-1],"loss_changes":[1.8018376E13,4.5777892E11,4.5971554E12,0E0,0E0,0E0,0E0],"parents":[2147483647,0,0,1,1,2,2],"right_children":[2,4,6,-1,-1,-1,-1],"split_conditions":[1.07E2,1E0,4E0,-3.3226754E4,-1.2814972E4,9.259193E4,1.0360898E4],"split_indices":[0,12,5,0,0,0,0],"split_type":[0,0,0,0,0,0,0],"sum_hessian":[2.4E1,1.7E1,7E0,1.1E1,6E0,4E0,3E0],"tree_param":{"num_deleted":"0","num_feature":"19","num_nodes":"7","size_leaf_vector":"1"}},{"base_weights":[-9.4786055E4,-4.692537E5,5.8873425E5,-2.600611E4,-8.0591675E3,5.388825E4,4.154316E3],"categories":[],"categories_nodes":[],"categories_segments":[],"categories_sizes":[],"default_left":[0,0,0,0,0,0,0],"id":5,"left_children":[1,3,5,-1,-1,-1,-1],"loss_changes":[7.1870846E12,1.9824404E11,2.3832256E12,0E0,0E0,0E0,0E0],"parents":[2147483647,0,0,1,1,2,2],"right_children":[2,4,6,-1,-1,-1,-1],"split_conditions":[1.1449E4,7.569E3,4E0,-2.600611E4,-8.0591675E3,5.388825E4,4.154316E3],"split_indices":[11,11,5,0,0,0,0],"split_type":[0,0,0,0,0,0,0],"sum_hessian":[2.6E1,1.7E1,9E0,1.4E1,3E0,4E0,5E0],"tree_param":{"num_deleted":"0","num_feature":"19","num_nodes":"7","size_leaf_vector":"1"}},{"base_weights":[1.6664967E5,-2.8601428E5,1.0511464E6,-5.0321925E5,1.4624028E4,8.642153E4,1.4954481E4,-3.5027328E5,-3.607715E4,-8.8467E3,-2.0372693E4],"categories":[],"categories_nodes":[],"categories_segments":[],"categories_sizes":[],"default_left":[0,0,0,0,0,0,0,0,0,0,0],"id":6,"left_children":[1,3,5,7,-1,-1,-1,9,-1,-1,-1],"loss_changes":[9.509376E12,2.1576132E12,3.5578939E12,1.4796351E11,0E0,0E0,0E0,1.7112236E10,0E0,0E0,0E0],"parents":[2147483647,0,0,1,1,2,2,3,3,7,7],"right_children":[2,4,6,8,-1,-1,-1,10,-1,-1,-1],"split_conditions":[4E0,1E0,6E0,3.1914894E-2,1.4624028E4,8.642153E4,1.4954481E4,1.1E1,-3.607715E4,-8.8467E3,-2.0372693E4],"split_indices":[1,18,8,9,0,0,0,4,0,0,0],"split_type":[0,0,0,0,0,0,0,0,0,0,0],"sum_hessian":[2.2E1,1.5E1,7E0,1.1E1,4E0,3E0,4E0,8E0,3E0,3E0,5E0],"tree_param":{"num_deleted":"0","num_feature":"19","num_nodes":"11","size_leaf_vector":"1"}},{"base_weights":[-3.7743793E4,-3.600147E5,8.318072E4,-2.7719176E4,1.0792059E5,-1.7423725E4,2.686678E4],"categories":[],"categories_nodes":[],"categories_segments":[],"categories_sizes":[],"default_left":[0,0,0,0,0,0,0],"id":7,"left_children":[1,3,-1,-1,5,-1,-1],"loss_changes":[1.3758084E13,1.9698221E12,0E0,0E0,1.5591279E12,0E0,0E0],"parents":[2147483647,0,0,1,1,4,4],"right_children":[2,4,-1,-1,6,-1,-1],"split_conditions":[1.69E4,1E0,8.318072E4,-2.7719176E4,7.569E3,-1.7423725E4,2.686678E4],"split_indices":[11,18,0,0,11,0,0],"split_type":[0,0,0,0,0,0,0],"sum_hessian":[2.3E1,2E1,3E0,1.4E1,6E0,3E0,3E0],"tree_param":{"num_deleted":"0","num_feature":"19","num_nodes":"7","size_leaf_vector":"1"}},{"base_weights":[-1.104881E5,-4.8251278E5,4.8049344E5,-3.233624E4,-2.785132E5,4.716112E4,-3.9167102E3,-1.822067E4,-5.0754785E3],"categories":[],"categories_nodes":[],"categories_segments":[],"categories_sizes":[],"default_left":[0,0,0,0,0,0,0,0,0],"id":8,"left_children":[1,3,5,-1,7,-1,-1,-1,-1],"loss_changes":[5.068758E12,2.8886696E11,2.4011583E12,0E0,8.464571E10,0E0,0E0,0E0,0E0],"parents":[2147483647,0,0,1,1,2,2,4,4],"right_children":[2,4,6,-1,8,-1,-1,-1,-1],"split_conditions":[1.03E2,4E0,2.9126214E-2,-3.233624E4,2.6548672E-2,4.716112E4,-3.9167102E3,-1.822067E4,-5.0754785E3],"split_indices":[0,8,9,0,9,0,0,0,0],"split_type":[0,0,0,0,0,0,0,0,0],"sum_hessian":[2.1E1,1.3E1,8E0,6E0,7E0,4E0,4E0,4E0,3E0],"tree_param":{"num_deleted":"0","num_feature":"19","num_nodes":"9","size_leaf_vector":"1"}},{"base_weights":[-1.6263052E5,-3.2132394E5,3.3574715E4,-4.2633544E5,1.0265294E4,-2.3549367E4,-1.1248672E4],"categories":[],"categories_nodes":[],"categories_segments":[],"categories_sizes":[],"default_left":[0,0,0,0,0,0,0],"id":9,"left_children":[1,3,-1,5,-1,-1,-1],"loss_changes":[3.2602802E12,1.1935731E12,0E0,4.6890484E10,0E0,0E0,0E0],"parents":[2147483647,0,0,1,1,3,3],"right_children":[2,4,-1,6,-1,-1,-1],"split_conditions":[1.3E2,6E0,3.3574715E4,5E0,1.0265294E4,-2.3549367E4,-1.1248672E4],"split_indices":[0,8,0,8,0,0,0],"split_type":[0,0,0,0,0,0,0],"sum_hessian":[2.2E1,1.9E1,3E0,1.6E1,3E0,1.2E1,4E0],"tree_param":{"num_deleted":"0","num_feature":"19","num_nodes":"7","size_leaf_vector":"1"}},{"base_weights":[-9.928141E4,-4.2498488E5,7.2738744E5,-2.6184717E4,-2.4615169E5,4.5173527E4,1.6271836E4,-1.725704E4,-4.8966113E3],"categories":[],"categories_nodes":[],"categories_segments":[],"categories_sizes":[],"default_left":[0,0,0,0,0,0,0,0,0],"id":10,"left_children":[1,3,5,-1,7,-1,-1,-1,-1],"loss_changes":[7.5788494E12,2.241423E11,2.7219067E11,0E0,9.824852E10,0E0,0E0,0E0,0E0],"parents":[2147483647,0,0,1,1,2,2,4,4],"right_children":[2,4,6,-1,8,-1,-1,-1,-1],"split_conditions":[1.07E2,1E0,4E0,-2.6184717E4,2.6548672E-2,4.5173527E4,1.6271836E4,-1.725704E4,-4.8966113E3],"split_indices":[0,12,5,0,9,0,0,0,0],"split_type":[0,0,0,0,0,0,0,0,0],"sum_hessian":[2.6E1,1.9E1,7E0,1.1E1,8E0,4E0,3E0,4E0,4E0],"tree_param":{"num_deleted":"0","num_feature":"19","num_nodes":"9","size_leaf_vector":"1"}},{"base_weights":[1.4360612E4,-2.3915917E5,7.659446E4,-1.8823293E4,1.1775259E4],"categories":[],"categories_nodes":[],"categories_segments":[],"categories_sizes":[],"default_left":[0,0,0,0,0],"id":11,"left_children":[1,3,-1,-1,-1],"loss_changes":[1.0753901E13,1.6528495E12,0E0,0E0,0E0],"parents":[2147483647,0,0,1,1],"right_children":[2,4,-1,-1,-1],"split_conditions":[1.73E2,1.13E2,7.659446E4,-1.8823293E4,1.1775259E4],"split_indices":[0,0,0,0,0],"split_type":[0,0,0,0,0],"sum_hessian":[2.6E1,2.3E1,3E0,1.8E1,5E0],"tree_param":{"num_deleted":"0","num_feature":"19","num_nodes":"5","size_leaf_vector":"1"}},{"base_weights":[5.7058684E4,-2.156364E5,7.3722164E4,-5.114584E5,1.6091362E5,-2.896327E5,-3.42506E4,3.1084088E4,-1.2537008E5,-2.0227893E4,-5.1149663E3,-1.2294799E4,1.3249159E3],"categories":[],"categories_nodes":[],"categories_segments":[],"categories_sizes":[],"default_left":[0,0,0,0,0,0,0,0,0,0,0,0,0],"id":12,"left_children":[1,3,-1,5,7,9,-1,-1,11,-1,-1,-1,-1],"loss_changes":[9.594275E12,2.4215282E12,0E0,2.6358186E11,1.3970443E12,1.0931916E11,0E0,0E0,1.3464438E11,0E0,0E0,0E0,0E0],"parents":[2147483647,0,0,1,1,3,3,4,4,5,5,8,8],"right_children":[2,4,-1,6,8,10,-1,-1,12,-1,-1,-1,-1],"split_conditions":[1.73E2,1E0,7.3722164E4,2E0,3E0,5E1,-3.42506E4,3.1084088E4,9E0,-2.0227893E4,-5.1149663E3,-1.2294799E4,1.3249159E3],"split_indices":[0,16,0,2,5,0,0,0,4,0,0,0,0],"split_type":[0,0,0,0,0,0,0,0,0,0,0,0,0],"sum_hessian":[2.3E1,2E1,3E0,1.1E1,9E0,6E0,5E0,3E0,6E0,3E0,3E0,3E0,3E0],"tree_param":{"num_deleted":"0","num_feature":"19","num_nodes":"13","size_leaf_vector":"1"}},{"base_weights":[9.123378E4,-3.7090578E5,9.026781E5,-2.442225E4,-1.9231089E5,6.703571E4,9.9773E2,-1.5095757E4,-3.3082654E3],"categories":[],"categories_nodes":[],"categories_segments":[],"categories_sizes":[],"default_left":[0,0,0,0,0,0,0,0,0],"id":13,"left_children":[1,3,5,-1,7,-1,-1,-1,-1],"loss_changes":[9.334821E12,2.419369E11,3.4532282E12,0E0,9.063239E10,0E0,0E0,0E0,0E0],"parents":[2147483647,0,0,1,1,2,2,4,4],"right_children":[2,4,6,-1,8,-1,-1,-1,-1],"split_conditions":[1.1449E4,1E0,2.9126214E-2,-2.442225E4,2.6548672E-2,6.703571E4,9.9773E2,-1.5095757E4,-3.3082654E3],"split_indices":[11,12,9,0,9,0,0,0,0],"split_type":[0,0,0,0,0,0,0,0,0],"sum_hessian":[2.3E1,1.5E1,8E0,8E0,7E0,5E0,3E0,3E0,4E0],"tree_param":{"num_deleted":"0","num_feature":"19","num_nodes":"9","size_leaf_vector":"1"}},{"base_weights":[-5.6309246E4,-2.9436853E5,3.5402244E5,-1.8957324E4,-1.516E5,3.962714E4,-3.5207473E3,-7.4043E2,-1.1535655E4],"categories":[],"categories_nodes":[],"categories_segments":[],"categories_sizes":[],"default_left":[0,0,0,0,0,0,0,0,0],"id":14,"left_children":[1,3,5,-1,7,-1,-1,-1,-1],"loss_changes":[2.6439778E12,1.4828293E11,1.9170515E12,0E0,8.315938E10,0E0,0E0,0E0,0E0],"parents":[2147483647,0,0,1,1,2,2,4,4],"right_children":[2,4,6,-1,8,-1,-1,-1,-1],"split_conditions":[1.07E2,6.7E1,3E0,-1.8957324E4,2E0,3.962714E4,-3.5207473E3,-7.4043E2,-1.1535655E4],"split_indices":[0,0,2,0,3,0,0,0,0],"split_type":[0,0,0,0,0,0,0,0,0],"sum_hessian":[2.5E1,1.6E1,9E0,9E0,7E0,4E0,5E0,3E0,4E0],"tree_param":{"num_deleted":"0","num_feature":"19","num_nodes":"9","size_leaf_vector":"1"}},{"base_weights":[-8.531356E3,-2.922328E5,6.207307E4,-3.7724725E5,9.232197E3,-4.8614144E5,-2.02238E5,-1.4307503E4,-3.344505E4,-1.5060695E4,-1.6073157E2],"categories":[],"categories_nodes":[],"categories_segments":[],"categories_sizes":[],"default_left":[0,0,0,0,0,0,0,0,0,0,0],"id":15,"left_children":[1,3,-1,5,-1,7,9,-1,-1,-1,-1],"loss_changes":[9.583039E12,9.615674E11,0E0,2.6377585E11,0E0,2.1064765E11,1.7631832E11,0E0,0E0,0E0,0E0],"parents":[2147483647,0,0,1,1,3,3,5,5,6,6],"right_children":[2,4,-1,6,-1,8,10,-1,-1,-1,-1],"split_conditions":[1.4E2,6E0,6.207307E4,4E0,9.232197E3,1.5E0,8E1,-1.4307503E4,-3.344505E4,-1.5060695E4,-1.6073157E2],"split_indices":[0,8,0,8,0,10,0,0,0,0,0],"split_type":[0,0,0,0,0,0,0,0,0,0,0],"sum_hessian":[2.5E1,2.1E1,4E0,1.8E1,3E0,1E1,8E0,6E0,4E0,5E0,3E0],"tree_param":{"num_deleted":"0","num_feature":"19","num_nodes":"11","size_leaf_vector":"1"}},{"base_weights":[5.2717832E4,-1.7708744E5,6.804594E4,-3.4289603E5,1.7666567E5,-4.277597E5,-2.045624E5,-1.06031455E4,3.09205E4,-9.435836E3,-2.579142E4,-1.4096698E4,-2.8353677E3],"categories":[],"categories_nodes":[],"categories_segments":[],"categories_sizes":[],"default_left":[0,0,0,0,0,0,0,0,0,0,0,0,0],"id":16,"left_children":[1,3,-1,5,7,9,11,-1,-1,-1,-1,-1,-1],"loss_changes":[8.05742E12,1.4096501E12,0E0,1.0032841E11,1.504891E12,9.212435E10,7.55304E10,0E0,0E0,0E0,0E0,0E0,0E0],"parents":[2147483647,0,0,1,1,3,3,4,4,5,5,6,6],"right_children":[2,4,-1,6,8,10,12,-1,-1,-1,-1,-1,-1],"split_conditions":[1.6E2,1.03E2,6.804594E4,5E0,5E0,2.1978023E-2,2.6548672E-2,-1.06031455E4,3.09205E4,-9.435836E3,-2.579142E4,-1.4096698E4,-2.8353677E3],"split_indices":[0,0,0,8,8,9,9,0,0,0,0,0,0],"split_type":[0,0,0,0,0,0,0,0,0,0,0,0,0],"sum_hessian":[2.5E1,2.2E1,3E0,1.5E1,7E0,8E0,7E0,4E0,3E0,3E0,5E0,4E0,3E0],"tree_param":{"num_deleted":"0","num_feature":"19","num_nodes":"13","size_leaf_vector":"1"}},{"base_weights":[1.4359189E5,-2.4980016E5,9.61601E5,-1.6000166E4,-1.03795164E5,6.941736E4,9.388403E3,-9.81646E3,7.3438153E2],"categories":[],"categories_nodes":[],"categories_segments":[],"categories_sizes":[],"default_left":[0,0,0,0,0,0,0,0,0],"id":17,"left_children":[1,3,5,-1,7,-1,-1,-1,-1],"loss_changes":[7.9633664E12,1.4103544E11,2.381154E12,0E0,7.9629476E10,0E0,0E0,0E0,0E0],"parents":[2147483647,0,0,1,1,2,2,4,4],"right_children":[2,4,6,-1,8,-1,-1,-1,-1],"split_conditions":[1.1449E4,1E0,4E0,-1.6000166E4,2.3121387E-2,6.941736E4,9.388403E3,-9.81646E3,7.3438153E2],"split_indices":[11,12,5,0,9,0,0,0,0],"split_type":[0,0,0,0,0,0,0,0,0],"sum_hessian":[2.3E1,1.6E1,7E0,1E1,6E0,4E0,3E0,3E0,3E0],"tree_param":{"num_deleted":"0","num_feature":"19","num_nodes":"9","size_leaf_vector":"1"}},{"base_weights":[6.757815E4,-2.1645425E5,6.2891062E4,-2.9531197E5,5.6830645E3,-1.7251664E4,-1.9630014E5,-4.1839443E3,-1.2992317E4],"categories":[],"categories_nodes":[],"categories_segments":[],"categories_sizes":[],"default_left":[0,0,0,0,0,0,0,0,0],"id":18,"left_children":[1,3,-1,5,-1,-1,7,-1,-1],"loss_changes":[7.033613E12,4.761121E11,0E0,1.1919688E9,0E0,0E0,2.8352889E10,0E0,0E0],"parents":[2147483647,0,0,1,1,3,3,6,6],"right_children":[2,4,-1,6,-1,-1,8,-1,-1],"split_conditions":[1.6E2,9.4E1,6.2891062E4,4E0,5.6830645E3,-1.7251664E4,3.1914894E-2,-4.1839443E3,-1.2992317E4],"split_indices":[0,0,0,5,0,0,9,0,0],"split_type":[0,0,0,0,0,0,0,0,0],"sum_hessian":[1.9E1,1.6E1,3E0,1.3E1,3E0,7E0,6E0,3E0,3E0],"tree_param":{"num_deleted":"0","num_feature":"19","num_nodes":"9","size_leaf_vector":"1"}},{"base_weights":[5.9413316E4,-3.239345E5,6.668285E5,-2.2200261E5,-2.2841027E4,5.437324E4,1.434964E3,-1.3249156E4,-4.0270442E3],"categories":[],"categories_nodes":[],"categories_segments":[],"categories_sizes":[],"default_left":[0,0,0,0,0,0,0,0,0],"id":19,"left_children":[1,3,5,7,-1,-1,-1,-1,-1],"loss_changes":[6.0372906E12,1.15309806E11,2.6529932E12,4.5539066E10,0E0,0E0,0E0,0E0,0E0],"parents":[2147483647,0,0,1,1,2,2,3,3],"right_children":[2,4,6,8,-1,-1,-1,-1,-1],"split_conditions":[1.03E2,3.1914894E-2,4E0,4E0,-2.2841027E4,5.437324E4,1.434964E3,-1.3249156E4,-4.0270442E3],"split_indices":[0,9,5,5,0,0,0,0,0],"split_type":[0,0,0,0,0,0,0,0,0],"sum_hessian":[2.4E1,1.5E1,9E0,1E1,5E0,5E0,4E0,7E0,3E0],"tree_param":{"num_deleted":"0","num_feature":"19","num_nodes":"9","size_leaf_vector":"1"}},{"base_weights":[2.4444534E3,-1.744073E5,5.756849E4,-3.355586E5,7.584977E4,-4.9335362E5,-1.9154619E5,-1.7351056E5,2.0489217E4,-1.2333647E4,-3.0834795E4,-2.4580814E5,-2.4350598E3,-9.804253E2,-1.4201747E4,-6.1734644E3,-1.5334747E4],"categories":[],"categories_nodes":[],"categories_segments":[],"categories_sizes":[],"default_left":[0,0,0,0,0,0,0,0,0,0,0,0,0,0,0,0,0],"id":20,"left_children":[1,3,-1,5,7,9,11,13,-1,-1,-1,15,-1,-1,-1,-1,-1],"loss_changes":[6.093301E12,1.0740126E12,0E0,2.6909108E11,9.870722E11,6.086066E10,6.553931E10,1.1349996E11,0E0,0E0,0E0,1.4274298E10,0E0,0E0,0E0,0E0,0E0],"parents":[2147483647,0,0,1,1,3,3,4,4,5,5,6,6,7,7,11,11],"right_children":[2,4,-1,6,8,10,12,14,-1,-1,-1,16,-1,-1,-1,-1,-1],"split_conditions":[1.73E2,5E0,5.756849E4,1E0,9E1,8.3E1,6.3E1,2E0,2.0489217E4,-1.2333647E4,-3.0834795E4,1E0,-2.4350598E3,-9.804253E2,-1.4201747E4,-6.1734644E3,-1.5334747E4],"split_indices":[0,8,0,13,0,0,0,3,0,0,0,14,0,0,0,0,0],"split_type":[0,0,0,0,0,0,0,0,0,0,0,0,0,0,0,0,0],"sum_hessian":[2.8E1,2.5E1,3E0,1.5E1,1E1,6E0,9E0,6E0,4E0,3E0,3E0,6E0,3E0,3E0,3E0,3E0,3E0],"tree_param":{"num_deleted":"0","num_feature":"19","num_nodes":"17","size_leaf_vector":"1"}},{"base_weights":[-1.1723304E5,-3.2349797E5,2.0388766E5,-1.6597719E5,-2.3990535E4,3.1686578E4,-9.414843E3,-1.0856624E4,-4.0813215E3],"categories":[],"categories_nodes":[],"categories_segments":[],"categories_sizes":[],"default_left":[0,0,0,0,0,0,0,0,0],"id":21,"left_children":[1,3,5,7,-1,-1,-1,-1,-1],"loss_changes":[1.6556197E12,2.896998E11,1.805111E12,2.1111112E10,0E0,0E0,0E0,0E0,0E0],"parents":[2147483647,0,0,1,1,2,2,3,3],"right_children":[2,4,6,8,-1,-1,-1,-1,-1],"split_conditions":[1.1449E4,1.1E1,3E0,4E0,-2.3990535E4,3.1686578E4,-9.414843E3,-1.0856624E4,-4.0813215E3],"split_indices":[11,4,2,8,0,0,0,0,0],"split_type":[0,0,0,0,0,0,0,0,0],"sum_hessian":[2.3E1,1.4E1,9E0,8E0,6E0,4E0,5E0,4E0,4E0],"tree_param":{"num_deleted":"0","num_feature":"19","num_nodes":"9","size_leaf_vector":"1"}},{"base_weights":[9.454981E4,-9.346231E4,5.5248957E4,-2.4889325E5,1.5870383E5,-1.7259857E4,-1.5703581E5,-4.6805366E3,2.4874986E4,-1.2432362E4,-1.700859E3],"categories":[],"categories_nodes":[],"categories_segments":[],"categories_sizes":[],"default_left":[0,0,0,0,0,0,0,0,0,0,0],"id":22,"left_children":[1,3,-1,5,7,-1,9,-1,-1,-1,-1],"loss_changes":[4.852598E12,9.017775E11,0E0,6.9638816E10,8.159196E11,0E0,9.297093E10,0E0,0E0,0E0,0E0],"parents":[2147483647,0,0,1,1,3,3,4,4,6,6],"right_children":[2,4,-1,6,8,-1,10,-1,-1,-1,-1],"split_conditions":[1.6E2,5E0,5.5248957E4,1E0,9.4E1,-1.7259857E4,5E1,-4.6805366E3,2.4874986E4,-1.2432362E4,-1.700859E3],"split_indices":[0,8,0,13,0,0,0,0,0,0,0],"split_type":[0,0,0,0,0,0,0,0,0,0,0],"sum_hessian":[2.4E1,2.1E1,3E0,1.3E1,8E0,5E0,8E0,5E0,3E0,4E0,4E0],"tree_param":{"num_deleted":"0","num_feature":"19","num_nodes":"11","size_leaf_vector":"1"}},{"base_weights":[9.669544E3,-1.740331E5,5.317712E4,-3.147401E5,7.981557E4,-2.0694594E5,-2.2097016E4,-4.6783506E3,1.5996778E4,-4.5315444E3,-1.3469208E4],"categories":[],"categories_nodes":[],"categories_segments":[],"categories_sizes":[],"default_left":[0,0,0,0,0,0,0,0,0,0,0],"id":23,"left_children":[1,3,-1,5,7,9,-1,-1,-1,-1,-1],"loss_changes":[5.2186715E12,8.466417E11,0E0,1.1421378E11,4.0462906E11,4.8210477E10,0E0,0E0,0E0,0E0,0E0],"parents":[2147483647,0,0,1,1,3,3,4,4,5,5],"right_children":[2,4,-1,6,8,10,-1,-1,-1,-1,-1],"split_conditions":[1.6E2,5E0,5.317712E4,1.5E0,9E1,2.1978023E-2,-2.2097016E4,-4.6783506E3,1.5996778E4,-4.5315444E3,-1.3469208E4],"split_indices":[0,8,0,10,0,9,0,0,0,0,0],"split_type":[0,0,0,0,0,0,0,0,0,0,0],"sum_hessian":[2.5E1,2.2E1,3E0,1.4E1,8E0,9E0,5E0,5E0,3E0,4E0,5E0],"tree_param":{"num_deleted":"0","num_feature":"19","num_nodes":"11","size_leaf_vector":"1"}},{"base_weights":[-1.1274351E5,-2.6365025E5,2.698505E5,-1.2466242E5,-3.733436E5,3.0457404E4,-6.8454814E3,-1.0206004E4,-1.0136128E3,-8.977265E3,-2.462366E4],"categories":[],"categories_nodes":[],"categories_segments":[],"categories_sizes":[],"default_left":[0,0,0,0,0,0,0,0,0,0,0],"id":24,"left_children":[1,3,5,7,9,-1,-1,-1,-1,-1,-1],"loss_changes":[1.3990746E12,2.1264086E11,1.0494872E12,7.051338E10,1.1936268E11,0E0,0E0,0E0,0E0,0E0,0E0],"parents":[2147483647,0,0,1,1,2,2,3,3,4,4],"right_children":[2,4,6,8,10,-1,-1,-1,-1,-1,-1],"split_conditions":[1.07E2,1.1E1,3E0,6.3E1,2E0,3.0457404E4,-6.8454814E3,-1.0206004E4,-1.0136128E3,-8.977265E3,-2.462366E4],"split_indices":[0,4,2,0,2,0,0,0,0,0,0],"split_type":[0,0,0,0,0,0,0,0,0,0,0],"sum_hessian":[2.2E1,1.6E1,6E0,8E0,8E0,3E0,3E0,4E0,4E0,4E0,4E0],"tree_param":{"num_deleted":"0","num_feature":"19","num_nodes":"11","size_leaf_vector":"1"}},{"base_weights":[7.083013E4,-9.722992E4,5.0973402E4,-1.6984217E5,9.907129E3,-2.5193583E5,-5.0634113E4,-1.2466733E5,-1.8986229E4,-8.90053E3,4.343459E3,-1.4013019E3,-9.507088E3],"categories":[],"categories_nodes":[],"categories_segments":[],"categories_sizes":[],"default_left":[0,0,0,0,0,0,0,0,0,0,0,0,0],"id":25,"left_children":[1,3,-1,5,-1,7,9,11,-1,-1,-1,-1,-1],"loss_changes":[4.2442542E12,5.269492E11,0E0,1.731817E11,0E0,1.3155893E11,1.7309583E11,3.89638E10,0E0,0E0,0E0,0E0,0E0],"parents":[2147483647,0,0,1,1,3,3,5,5,6,6,7,7],"right_children":[2,4,-1,6,-1,8,10,12,-1,-1,-1,-1,-1],"split_conditions":[2.56E4,1E0,5.0973402E4,4E0,9.907129E3,2E0,3E0,2.1978023E-2,-1.8986229E4,-8.90053E3,4.343459E3,-1.4013019E3,-9.507088E3],"split_indices":[11,18,0,8,0,2,1,9,0,0,0,0,0],"split_type":[0,0,0,0,0,0,0,0,0,0,0,0,0],"sum_hessian":[2.5E1,2.2E1,3E0,1.8E1,4E0,1E1,8E0,6E0,4E0,4E0,4E0,3E0,3E0],"tree_param":{"num_deleted":"0","num_feature":"19","num_nodes":"13","size_leaf_vector":"1"}},{"base_weights":[4.9893496E4,-1.2170973E5,4.9061895E4,-2.917468E5,4.4300086E4,-1.363875E5,-2.6476438E4,-1.2829614E5,2.107833E4,-8.719931E3,-2.7388364E3,-8.269415E2,-1.071971E4],"categories":[],"categories_nodes":[],"categories_segments":[],"categories_sizes":[],"default_left":[0,0,0,0,0,0,0,0,0,0,0,0,0],"id":26,"left_children":[1,3,-1,5,7,9,-1,11,-1,-1,-1,-1,-1],"loss_changes":[4.1149685E12,6.339366E11,0E0,3.341368E11,8.354627E11,1.5263891E10,0E0,8.305294E10,0E0,0E0,0E0,0E0,0E0],"parents":[2147483647,0,0,1,1,3,3,4,4,5,5,7,7],"right_children":[2,4,-1,6,8,10,-1,12,-1,-1,-1,-1,-1],"split_conditions":[1.4E2,4E0,4.9061895E4,8.3E1,1.07E2,7E0,-2.6476438E4,1E0,2.107833E4,-8.719931E3,-2.7388364E3,-8.269415E2,-1.071971E4],"split_indices":[0,8,0,0,0,4,0,18,0,0,0,0,0],"split_type":[0,0,0,0,0,0,0,0,0,0,0,0,0],"sum_hessian":[2.4E1,2.1E1,3E0,1E1,1.1E1,7E0,3E0,8E0,3E0,4E0,3E0,4E0,4E0],"tree_param":{"num_deleted":"0","num_feature":"19","num_nodes":"13","size_leaf_vector":"1"}},{"base_weights":[1.8048342E4,-1.562568E5,4.861073E4,-4.2025238E5,-3.0992682E4,-2.7285557E4,-9.486523E3,-1.5368072E5,1.877458E4,-8.6367484E4,-1.0890912E4,-7.0261978E3,1.459972E2],"categories":[],"categories_nodes":[],"categories_segments":[],"categories_sizes":[],"default_left":[0,0,0,0,0,0,0,0,0,0,0,0,0],"id":27,"left_children":[1,3,-1,5,7,-1,-1,9,-1,11,-1,-1,-1],"loss_changes":[4.309817E12,7.1449693E11,0E0,9.890877E10,8.55638E11,0E0,0E0,3.7312496E10,0E0,3.9094276E10,0E0,0E0,0E0],"parents":[2147483647,0,0,1,1,3,3,4,4,7,7,9,9],"right_children":[2,4,-1,6,8,-1,-1,10,-1,12,-1,-1,-1],"split_conditions":[1.6E2,1E0,4.861073E4,1E0,1.07E2,-2.7285557E4,-9.486523E3,2E0,1.877458E4,1E0,-1.0890912E4,-7.0261978E3,1.459972E2],"split_indices":[0,13,0,15,0,0,0,3,0,12,0,0,0],"split_type":[0,0,0,0,0,0,0,0,0,0,0,0,0],"sum_hessian":[2.4E1,2.1E1,3E0,6E0,1.5E1,3E0,3E0,1.2E1,3E0,7E0,5E0,4E0,3E0],"tree_param":{"num_deleted":"0","num_feature":"19","num_nodes":"13","size_leaf_vector":"1"}},{"base_weights":[2.7480936E4,-1.4999358E5,4.5399168E4,-2.836533E5,8.595267E4,-1.515616E5,-2.3234387E4,-1.2518569E4,1.689107E4,-4.623398E3,-1.011558E4],"categories":[],"categories_nodes":[],"categories_segments":[],"categories_sizes":[],"default_left":[0,0,0,0,0,0,0,0,0,0,0],"id":28,"left_children":[1,3,-1,5,7,9,-1,-1,-1,-1,-1],"loss_changes":[3.7303264E12,6.55111E11,0E0,2.4044208E11,7.622569E11,8.283652E9,0E0,0E0,0E0,0E0,0E0],"parents":[2147483647,0,0,1,1,3,3,4,4,5,5],"right_children":[2,4,-1,6,8,10,-1,-1,-1,-1,-1],"split_conditions":[2.9929E4,5E0,4.5399168E4,2.9850746E-2,2.6548672E-2,2E0,-2.3234387E4,-1.2518569E4,1.689107E4,-4.623398E3,-1.011558E4],"split_indices":[11,8,0,9,9,2,0,0,0,0,0],"split_type":[0,0,0,0,0,0,0,0,0,0,0],"sum_hessian":[2.2E1,1.9E1,3E0,1.2E1,7E0,8E0,4E0,3E0,4E0,5E0,3E0],"tree_param":{"num_deleted":"0","num_feature":"19","num_nodes":"11","size_leaf_vector":"1"}},{"base_weights":[-2.634487E3,-1.4861944E5,4.3696695E4,-2.4534212E5,7.549367E4,-1.8250635E4,-1.6506166E5,2.0027758E4,-9.982712E3,-1.6886942E3,-2.050716E5,-5.84906E3,-1.2607382E4],"categories":[],"categories_nodes":[],"categories_segments":[],"categories_sizes":[],"default_left":[0,0,0,0,0,0,0,0,0,0,0,0,0],"id":29,"left_children":[1,3,-1,5,7,-1,9,-1,-1,-1,11,-1,-1],"loss_changes":[3.5849597E12,5.3876552E11,0E0,1.0307292E11,7.954924E11,0E0,5.6107696E10,0E0,0E0,0E0,7.8259814E9,0E0,0E0],"parents":[2147483647,0,0,1,1,3,3,4,4,6,6,10,10],"right_children":[2,4,-1,6,8,-1,10,-1,-1,-1,12,-1,-1],"split_conditions":[1.73E2,1.03E2,4.3696695E4,1E0,3E0,-1.8250635E4,3E0,2.0027758E4,-9.982712E3,-1.6886942E3,1E1,-5.84906E3,-1.2607382E4],"split_indices":[0,0,0,17,2,0,8,0,0,0,4,0,0],"split_type":[0,0,0,0,0,0,0,0,0,0,0,0,0],"sum_hessian":[2.6E1,2.3E1,3E0,1.6E1,7E0,5E0,1.1E1,3E0,4E0,3E0,8E0,4E0,4E0],"tree_param":{"num_deleted":"0","num_feature":"19","num_nodes":"13","size_leaf_vector":"1"}},{"base_weights":[3.782681E4,-1.16990555E5,4.2058066E4,-1.8469358E5,-6.198336E3,-2.1233984E5,-3.4702253E3,3.7737402E3,-4.3315913E3,-2.7495494E5,-2.4839224E3,-7.0963765E3,-1.6962178E4],"categories":[],"categories_nodes":[],"categories_segments":[],"categories_sizes":[],"default_left":[0,0,0,0,0,0,0,0,0,0,0,0,0],"id":30,"left_children":[1,3,-1,5,7,9,-1,-1,-1,11,-1,-1,-1],"loss_changes":[3.0832908E12,1.5637552E11,0E0,2.6697662E10,6.566182E10,8.819124E10,0E0,0E0,0E0,1.1716952E10,0E0,0E0,0E0],"parents":[2147483647,0,0,1,1,3,3,4,4,5,5,9,9],"right_children":[2,4,-1,6,8,10,-1,-1,-1,12,-1,-1,-1],"split_conditions":[1.73E2,5E0,4.2058066E4,1.3E1,1.1E1,4E0,-3.4702253E3,3.7737402E3,-4.3315913E3,1.5E0,-2.4839224E3,-7.0963765E3,-1.6962178E4],"split_indices":[0,8,0,4,4,8,0,0,0,10,0,0,0],"split_type":[0,0,0,0,0,0,0,0,0,0,0,0,0],"sum_hessian":[2.3E1,2E1,3E0,1.2E1,8E0,9E0,3E0,4E0,4E0,6E0,3E0,3E0,3E0],"tree_param":{"num_deleted":"0","num_feature":"19","num_nodes":"13","size_leaf_vector":"1"}},{"base_weights":[3.8790773E4,-1.9251762E5,4.970975E5,-1.0493054E5,-2.8888516E5,4.397709E4,7.616865E2,-9.367066E3,-3.1075594E4,-3.3970457E3,-2.0393176E4,1.3525707E3,-4.0716863E3],"categories":[],"categories_nodes":[],"categories_segments":[],"categories_sizes":[],"default_left":[0,0,0,0,0,0,0,0,0,0,0,0,0],"id":31,"left_children":[1,3,5,7,9,-1,-1,-1,11,-1,-1,-1,-1],"loss_changes":[2.851965E12,1.2161699E11,1.6451754E12,6.112913E10,1.8258992E11,0E0,0E0,0E0,2.2693077E10,0E0,0E0,0E0,0E0],"parents":[2147483647,0,0,1,1,2,2,3,3,4,4,8,8],"right_children":[2,4,6,8,10,-1,-1,-1,12,-1,-1,-1,-1],"split_conditions":[1.07E2,2E0,1.5E0,5E1,1E1,4.397709E4,7.616865E2,-9.367066E3,1.4E1,-3.3970457E3,-2.0393176E4,1.3525707E3,-4.0716863E3],"split_indices":[0,2,10,0,4,0,0,0,4,0,0,0,0],"split_type":[0,0,0,0,0,0,0,0,0,0,0,0,0],"sum_hessian":[2.5E1,1.7E1,8E0,1E1,7E0,4E0,4E0,4E0,6E0,3E0,4E0,3E0,3E0],"tree_param":{"num_deleted":"0","num_feature":"19","num_nodes":"13","size_leaf_vector":"1"}},{"base_weights":[2.558764E4,-1.0802073E5,3.9371945E4,-2.0732636E5,1.4858161E5,-1.00449055E5,-2.9116738E5,1.8745982E4,-5.7450913E3,-7.5638687E3,4.5283123E1,-4.422135E3,-1.8889463E4],"categories":[],"categories_nodes":[],"categories_segments":[],"categories_sizes":[],"default_left":[0,0,0,0,0,0,0,0,0,0,0,0,0],"id":32,"left_children":[1,3,-1,5,7,9,11,-1,-1,-1,-1,-1,-1],"loss_changes":[2.7315919E12,6.168922E11,0E0,1.2308441E11,4.6053327E11,4.6502232E10,1.24630794E11,0E0,0E0,0E0,0E0,0E0,0E0],"parents":[2147483647,0,0,1,1,3,3,4,4,5,5,6,6],"right_children":[2,4,-1,6,8,10,12,-1,-1,-1,-1,-1,-1],"split_conditions":[1.73E2,1.07E2,3.9371945E4,1.1E1,3E0,5E0,1.5873017E-2,1.8745982E4,-5.7450913E3,-7.5638687E3,4.5283123E1,-4.422135E3,-1.8889463E4],"split_indices":[0,0,0,4,2,8,9,0,0,0,0,0,0],"split_type":[0,0,0,0,0,0,0,0,0,0,0,0,0],"sum_hessian":[2.5E1,2.2E1,3E0,1.6E1,6E0,8E0,8E0,3E0,3E0,5E0,3E0,3E0,5E0],"tree_param":{"num_deleted":"0","num_feature":"19","num_nodes":"13","size_leaf_vector":"1"}},{"base_weights":[-1.7527498E4,-1.4603675E5,3.7895496E4,-2.8898975E5,-4.0998953E4,-5.857472E3,-2.1870008E4,-1.4558492E5,1.4150433E4,-7.629029E4,-1.0108225E4,-2.983769E2,-6.3770225E3],"categories":[],"categories_nodes":[],"categories_segments":[],"categories_sizes":[],"default_left":[0,0,0,0,0,0,0,0,0,0,0,0,0],"id":33,"left_children":[1,3,-1,5,7,-1,-1,9,-1,11,-1,-1,-1],"loss_changes":[2.8012564E12,3.4852297E11,0E0,2.0378767E11,5.4950157E11,0E0,0E0,3.1624708E10,0E0,2.4467247E10,0E0,0E0,0E0],"parents":[2147483647,0,0,1,1,3,3,4,4,7,7,9,9],"right_children":[2,4,-1,6,8,-1,-1,10,-1,12,-1,-1,-1],"split_conditions":[1.73E2,4E0,3.7895496E4,1.5E0,1.5E0,-5.857472E3,-2.1870008E4,1E0,1.4150433E4,1.6E1,-1.0108225E4,-2.983769E2,-6.3770225E3],"split_indices":[0,8,0,10,10,0,0,18,0,4,0,0,0],"split_type":[0,0,0,0,0,0,0,0,0,0,0,0,0],"sum_hessian":[2.6E1,2.3E1,3E0,9E0,1.4E1,5E0,4E0,1.1E1,3E0,6E0,5E0,3E0,3E0],"tree_param":{"num_deleted":"0","num_feature":"19","num_nodes":"13","size_leaf_vector":"1"}},{"base_weights":[5.953849E4,-1.113543E5,4.0683574E4,-2.0033844E5,8.0036064E3,-1.18372125E5,-1.8783057E4,-7.58434E3,-2.402858E3],"categories":[],"categories_nodes":[],"categories_segments":[],"categories_sizes":[],"default_left":[0,0,0,0,0,0,0,0,0],"id":34,"left_children":[1,3,-1,5,-1,7,-1,-1,-1],"loss_changes":[2.7969991E12,4.668162E11,0E0,1.567199E11,0E0,1.8478055E10,0E0,0E0,0E0],"parents":[2147483647,0,0,1,1,3,3,5,5],"right_children":[2,4,-1,6,-1,8,-1,-1,-1],"split_conditions":[1.5E1,1.13E2,4.0683574E4,9.4E1,8.0036064E3,1E0,-1.8783057E4,-7.58434E3,-2.402858E3],"split_indices":[4,0,0,0,0,12,0,0,0],"split_type":[0,0,0,0,0,0,0,0,0],"sum_hessian":[2E1,1.7E1,3E0,1.3E1,4E0,1E1,3E0,6E0,4E0],"tree_param":{"num_deleted":"0","num_feature":"19","num_nodes":"9","size_leaf_vector":"1"}},{"base_weights":[3.6037094E4,-1.0869891E5,3.9344594E4,1.16424E4,-1.785594E5,-9.6446266E4,-2.9381628E5,-1.7288375E5,4.982482E3,-4.894663E3,-2.0814262E4,-4.3578726E3,-1.2912612E4],"categories":[],"categories_nodes":[],"categories_segments":[],"categories_sizes":[],"default_left":[0,0,0,0,0,0,0,0,0,0,0,0,0],"id":35,"left_children":[1,3,-1,-1,5,7,9,11,-1,-1,-1,-1,-1],"loss_changes":[2.6937516E12,5.426505E11,0E0,0E0,1.4201638E11,1.9709673E11,1.2720977E11,4.335629E10,0E0,0E0,0E0,0E0,0E0],"parents":[2147483647,0,0,1,1,4,4,5,5,6,6,7,7],"right_children":[2,4,-1,-1,6,8,10,12,-1,-1,-1,-1,-1],"split_conditions":[1.6E2,3E0,3.9344594E4,1.16424E4,1.4E1,1E1,2E0,4E0,4.982482E3,-4.894663E3,-2.0814262E4,-4.3578726E3,-1.2912612E4],"split_indices":[0,5,0,0,4,4,1,1,0,0,0,0,0],"split_type":[0,0,0,0,0,0,0,0,0,0,0,0,0],"sum_hessian":[2.3E1,2E1,3E0,3E0,1.7E1,1.1E1,6E0,8E0,3E0,3E0,3E0,5E0,3E0],"tree_param":{"num_deleted":"0","num_feature":"19","num_nodes":"13","size_leaf_vector":"1"}},{"base_weights":[6.0661902E4,-8.171551E4,3.7869176E4,-1.7701303E5,8.507378E3,-1.5714752E3,-2.4666183E5,-6.1708584E3,-2.0033727E4],"categories":[],"categories_nodes":[],"categories_segments":[],"categories_sizes":[],"default_left":[0,0,0,0,0,0,0,0,0],"id":36,"left_children":[1,3,-1,5,-1,-1,7,-1,-1],"loss_changes":[2.3434305E12,5.1015687E11,0E0,1.443433E11,0E0,0E0,1.4036219E11,0E0,0E0],"parents":[2147483647,0,0,1,1,3,3,6,6],"right_children":[2,4,-1,6,-1,-1,8,-1,-1],"split_conditions":[1.6E2,1.07E2,3.7869176E4,1.1E1,8.507378E3,-1.5714752E3,2E0,-6.1708584E3,-2.0033727E4],"split_indices":[0,0,0,4,0,0,1,0,0],"split_type":[0,0,0,0,0,0,0,0,0],"sum_hessian":[2.2E1,1.9E1,3E0,1.4E1,5E0,5E0,9E0,6E0,3E0],"tree_param":{"num_deleted":"0","num_feature":"19","num_nodes":"9","size_leaf_vector":"1"}},{"base_weights":[6.356135E4,-8.011842E4,4.369149E4,-1.30282055E5,6.326353E3,-9.160278E4,-1.262143E4,-1.3194206E5,1.1766014E3,-4.0659902E3,-1.064283E4],"categories":[],"categories_nodes":[],"categories_segments":[],"categories_sizes":[],"default_left":[0,0,0,0,0,0,0,0,0,0,0],"id":37,"left_children":[1,3,-1,5,-1,7,-1,9,-1,-1,-1],"loss_changes":[3.0969087E12,2.5490422E11,0E0,6.6643034E10,0E0,7.741617E10,0E0,3.1843434E10,0E0,0E0,0E0],"parents":[2147483647,0,0,1,1,3,3,5,5,7,7],"right_children":[2,4,-1,6,-1,8,-1,10,-1,-1,-1],"split_conditions":[1.96E4,2E0,4.369149E4,4E0,6.326353E3,6.4E3,-1.262143E4,1.4E1,1.1766014E3,-4.0659902E3,-1.064283E4],"split_indices":[11,10,0,1,0,11,0,4,0,0,0],"split_type":[0,0,0,0,0,0,0,0,0,0,0],"sum_hessian":[2.5E1,2.2E1,3E0,1.8E1,4E0,1.5E1,3E0,1.1E1,4E0,8E0,3E0],"tree_param":{"num_deleted":"0","num_feature":"19","num_nodes":"11","size_leaf_vector":"1"}},{"base_weights":[-8.0339736E3,-1.435788E5,3.6973555E4,-5.8619996E4,-1.801828E4,-1.8774673E5,1.4441674E4,-1.4961033E4,-1.04956E5,-1.7483691E3,-6.7061206E3],"categories":[],"categories_nodes":[],"categories_segments":[],"categories_sizes":[],"default_left":[0,0,0,0,0,0,0,0,0,0,0],"id":38,"left_children":[1,3,-1,5,-1,7,-1,-1,9,-1,-1],"loss_changes":[2.6391832E12,3.840701E11,0E0,8.1694156E11,0E0,8.8572035E10,0E0,0E0,1.3681918E10,0E0,0E0],"parents":[2147483647,0,0,1,1,3,3,5,5,8,8],"right_children":[2,4,-1,6,-1,8,-1,-1,10,-1,-1],"split_conditions":[5E0,1.7E1,3.6973555E4,1.07E2,-1.801828E4,1E0,1.4441674E4,-1.4961033E4,1E0,-1.7483691E3,-6.7061206E3],"split_indices":[1,4,0,0,0,13,0,0,14,0,0],"split_type":[0,0,0,0,0,0,0,0,0,0,0],"sum_hessian":[2.4E1,2.1E1,3E0,1.6E1,5E0,1.2E1,4E0,4E0,8E0,3E0,5E0],"tree_param":{"num_deleted":"0","num_feature":"19","num_nodes":"11","size_leaf_vector":"1"}},{"base_weights":[-1.879116E4,-1.2249296E5,3.0405873E4,-2.164034E5,-2.6383857E4,-7.121883E4,-2.0270902E4,1.0527342E5,-1.2904511E4,-5.335038E3,-4.530847E2,-2.530173E3,1.56385205E4],"categories":[],"categories_nodes":[],"categories_segments":[],"categories_sizes":[],"default_left":[0,0,0,0,0,0,0,0,0,0,0,0,0],"id":39,"left_children":[1,3,-1,5,7,9,-1,11,-1,-1,-1,-1,-1],"loss_changes":[1.829802E12,2.1090602E11,0E0,3.004306E11,4.237458E11,1.6676741E10,0E0,3.0692318E11,0E0,0E0,0E0,0E0,0E0],"parents":[2147483647,0,0,1,1,3,3,4,4,5,5,7,7],"right_children":[2,4,-1,6,8,10,-1,12,-1,-1,-1,-1,-1],"split_conditions":[1.73E2,4E0,3.0405873E4,1.5E0,1.7E1,7E0,-2.0270902E4,9.4E1,-1.2904511E4,-5.335038E3,-4.530847E2,-2.530173E3,1.56385205E4],"split_indices":[0,8,0,10,4,4,0,0,0,0,0,0,0],"split_type":[0,0,0,0,0,0,0,0,0,0,0,0,0],"sum_hessian":[2.6E1,2.3E1,3E0,1.1E1,1.2E1,7E0,4E0,8E0,4E0,4E0,3E0,5E0,3E0],"tree_param":{"num_deleted":"0","num_feature":"19","num_nodes":"13","size_leaf_vector":"1"}},{"base_weights":[4.6224074E4,-1.4591534E5,5.6114194E5,-9.9103016E4,-1.4834289E4,6.332636E3,4.276728E4,-1.1251378E3,-1.227612E5,-8.347687E4,-9.023031E3,-6.253472E3,-1.0937813E1],"categories":[],"categories_nodes":[],"categories_segments":[],"categories_sizes":[],"default_left":[0,0,0,0,0,0,0,0,0,0,0,0,0],"id":40,"left_children":[1,3,5,7,-1,-1,-1,-1,9,11,-1,-1,-1],"loss_changes":[2.5552796E12,1.0469792E11,7.8646634E11,2.6233094E10,0E0,0E0,0E0,0E0,1.2135875E10,3.1138902E10,0E0,0E0,0E0],"parents":[2147483647,0,0,1,1,2,2,3,3,8,8,9,9],"right_children":[2,4,6,8,-1,-1,-1,-1,10,12,-1,-1,-1],"split_conditions":[1.07E2,1.5E0,3E0,3E0,-1.4834289E4,6.332636E3,4.276728E4,-1.1251378E3,3.1914894E-2,2E0,-9.023031E3,-6.253472E3,-1.0937813E1],"split_indices":[0,10,5,8,0,0,0,0,9,1,0,0,0],"split_type":[0,0,0,0,0,0,0,0,0,0,0,0,0],"sum_hessian":[2.4E1,1.8E1,6E0,1.5E1,3E0,3E0,3E0,4E0,1.1E1,8E0,3E0,5E0,3E0],"tree_param":{"num_deleted":"0","num_feature":"19","num_nodes":"13","size_leaf_vector":"1"}},{"base_weights":[-4.8177816E4,-1.6043897E5,2.7661885E4,-9.205553E4,-2.8405503E5,-1.3439295E5,2.8985286E3,-2.1072537E4,-3.782277E3,-2.094373E3,-9.724218E3],"categories":[],"categories_nodes":[],"categories_segments":[],"categories_sizes":[],"default_left":[0,0,0,0,0,0,0,0,0,0,0],"id":41,"left_children":[1,3,-1,5,7,9,-1,-1,-1,-1,-1],"loss_changes":[1.7091351E12,1.513702E11,0E0,1.0306661E11,1.6856108E11,5.855894E10,0E0,0E0,0E0,0E0,0E0],"parents":[2147483647,0,0,1,1,3,3,4,4,5,5],"right_children":[2,4,-1,6,8,10,-1,-1,-1,-1,-1],"split_conditions":[1.6E2,1.5E0,2.7661885E4,9.4E1,1E0,2.1978023E-2,2.8985286E3,-2.1072537E4,-3.782277E3,-2.094373E3,-9.724218E3],"split_indices":[0,10,0,0,15,9,0,0,0,0,0],"split_type":[0,0,0,0,0,0,0,0,0,0,0],"sum_hessian":[2.3E1,2E1,3E0,1.4E1,6E0,1.1E1,3E0,3E0,3E0,5E0,6E0],"tree_param":{"num_deleted":"0","num_feature":"19","num_nodes":"11","size_leaf_vector":"1"}},{"base_weights":[3.866985E2,-9.938089E4,2.7450592E4,-3.0647348E4,-1.6347272E4,8.206721E4,-2.1949412E5,-5.720431E4,1.8745568E4,-1.7187168E4,-2.0185676E3,-5.3234116E3,1.7502275E2],"categories":[],"categories_nodes":[],"categories_segments":[],"categories_sizes":[],"default_left":[0,0,0,0,0,0,0,0,0,0,0,0,0],"id":42,"left_children":[1,3,-1,5,-1,7,9,11,-1,-1,-1,-1,-1],"loss_changes":[1.4229364E12,3.3408896E11,0E0,4.0115736E11,0E0,5.108648E11,1.4191362E11,2.7287693E10,0E0,0E0,0E0,0E0,0E0],"parents":[2147483647,0,0,1,1,3,3,5,5,6,6,7,7],"right_children":[2,4,-1,6,-1,8,10,12,-1,-1,-1,-1,-1],"split_conditions":[3E0,1.7E1,2.7450592E4,3.1914894E-2,-1.6347272E4,1.07E2,4E0,1E1,1.8745568E4,-1.7187168E4,-2.0185676E3,-5.3234116E3,1.7502275E2],"split_indices":[3,4,0,9,0,0,8,4,0,0,0,0,0],"split_type":[0,0,0,0,0,0,0,0,0,0,0,0,0],"sum_hessian":[2.4E1,2.1E1,3E0,1.7E1,4E0,1.1E1,6E0,8E0,3E0,3E0,3E0,4E0,4E0],"tree_param":{"num_deleted":"0","num_feature":"19","num_nodes":"13","size_leaf_vector":"1"}},{"base_weights":[-7.4502295E3,-1.3132016E5,3.06881E4,-1.8882495E5,2.4494321E3,-6.815464E4,-1.4987944E4,-1.3357644E3,1.550091E3,-6.267908E3,1.01941986E3],"categories":[],"categories_nodes":[],"categories_segments":[],"categories_sizes":[],"default_left":[0,0,0,0,0,0,0,0,0,0,0],"id":43,"left_children":[1,3,-1,5,7,9,-1,-1,-1,-1,-1],"loss_changes":[1.850438E12,1.5431038E11,0E0,1.6698006E11,6.6572795E9,4.3075658E10,0E0,0E0,0E0,0E0,0E0],"parents":[2147483647,0,0,1,1,3,3,4,4,5,5],"right_children":[2,4,-1,6,8,10,-1,-1,-1,-1,-1],"split_conditions":[1.6E2,5E0,3.06881E4,2E0,8.7E1,5E1,-1.4987944E4,-1.3357644E3,1.550091E3,-6.267908E3,1.01941986E3],"split_indices":[0,8,0,2,0,0,0,0,0,0,0],"split_type":[0,0,0,0,0,0,0,0,0,0,0],"sum_hessian":[2.2E1,1.9E1,3E0,1.3E1,6E0,7E0,6E0,3E0,3E0,4E0,3E0],"tree_param":{"num_deleted":"0","num_feature":"19","num_nodes":"11","size_leaf_vector":"1"}},{"base_weights":[-8.305738E4,-1.04181E4,-1.4961944E4,-1.0932974E5,1.4420022E4,-4.925748E4,-1.3110703E4,9.811925E2,-7.439837E4,-5.8243516E3,-8.715003E2],"categories":[],"categories_nodes":[],"categories_segments":[],"categories_sizes":[],"default_left":[0,0,0,0,0,0,0,0,0,0,0],"id":44,"left_children":[1,3,-1,5,-1,7,-1,-1,9,-1,-1],"loss_changes":[3.7376092E11,5.9310676E11,0E0,1.24845556E11,0E0,2.2240836E10,0E0,0E0,1.9549123E10,0E0,0E0],"parents":[2147483647,0,0,1,1,3,3,5,5,8,8],"right_children":[2,4,-1,6,-1,8,-1,-1,10,-1,-1],"split_conditions":[1.7E1,1.07E2,-1.4961944E4,1.5E0,1.4420022E4,3E0,-1.3110703E4,9.811925E2,1E0,-5.8243516E3,-8.715003E2],"split_indices":[4,0,0,10,0,8,0,0,12,0,0],"split_type":[0,0,0,0,0,0,0,0,0,0,0],"sum_hessian":[2.3E1,1.8E1,5E0,1.4E1,4E0,1.1E1,3E0,3E0,8E0,4E0,4E0],"tree_param":{"num_deleted":"0","num_feature":"19","num_nodes":"11","size_leaf_vector":"1"}},{"base_weights":[2.4782705E4,-7.9950914E4,2.97311E4,-1.927616E5,7.4698055E4,-7.552753E4,-1.826153E4,-4.807829E4,1.3544108E4,-6.293071E2,-6.1681694E3,1.2166003E3,-5.423452E3],"categories":[],"categories_nodes":[],"categories_segments":[],"categories_sizes":[],"default_left":[0,0,0,0,0,0,0,0,0,0,0,0,0],"id":45,"left_children":[1,3,-1,5,7,9,-1,11,-1,-1,-1,-1,-1],"loss_changes":[1.539574E12,3.9821217E11,0E0,2.352651E11,2.5389123E11,2.5545007E10,0E0,3.3249657E10,0E0,0E0,0E0,0E0,0E0],"parents":[2147483647,0,0,1,1,3,3,4,4,5,5,7,7],"right_children":[2,4,-1,6,8,10,-1,12,-1,-1,-1,-1,-1],"split_conditions":[1.6E2,5E0,2.97311E4,1.5E0,9.4E1,3E0,-1.826153E4,1E0,1.3544108E4,-6.293071E2,-6.1681694E3,1.2166003E3,-5.423452E3],"split_indices":[0,8,0,10,0,8,0,16,0,0,0,0,0],"split_type":[0,0,0,0,0,0,0,0,0,0,0,0,0],"sum_hessian":[2.4E1,2.1E1,3E0,1.2E1,9E0,8E0,4E0,6E0,3E0,4E0,4E0,3E0,3E0],"tree_param":{"num_deleted":"0","num_feature":"19","num_nodes":"13","size_leaf_vector":"1"}},{"base_weights":[-9.532931E4,-2.905992E4,-1.706705E4,-1.20435195E5,1.3457647E4,-4.9282227E4,-2.0487725E5,-4.300586E3,1.3657456E3,-3.916785E3,-1.4009974E4],"categories":[],"categories_nodes":[],"categories_segments":[],"categories_sizes":[],"default_left":[0,0,0,0,0,0,0,0,0,0,0],"id":46,"left_children":[1,3,-1,5,-1,7,9,-1,-1,-1,-1],"loss_changes":[3.813538E11,5.7740106E11,0E0,8.603602E10,0E0,3.0483149E10,4.4770066E10,0E0,0E0,0E0,0E0],"parents":[2147483647,0,0,1,1,3,3,5,5,6,6],"right_children":[2,4,-1,6,-1,8,10,-1,-1,-1,-1],"split_conditions":[3E0,1.07E2,-1.706705E4,1.1E1,1.3457647E4,7E0,2E0,-4.300586E3,1.3657456E3,-3.916785E3,-1.4009974E4],"split_indices":[2,0,0,4,0,4,2,0,0,0,0],"split_type":[0,0,0,0,0,0,0,0,0,0,0],"sum_hessian":[2.3E1,1.9E1,4E0,1.5E1,4E0,9E0,6E0,6E0,3E0,3E0,3E0],"tree_param":{"num_deleted":"0","num_feature":"19","num_nodes":"11","size_leaf_vector":"1"}},{"base_weights":[-2.6102072E4,-1.2141141E5,2.6422604E4,-5.4956633E4,-2.116662E4,-1.2791969E5,1.3443773E4,-5.902069E4,-1.2219886E4,-4.565613E3,1.4195238E3],"categories":[],"categories_nodes":[],"categories_segments":[],"categories_sizes":[],"default_left":[0,0,0,0,0,0,0,0,0,0,0],"id":47,"left_children":[1,3,-1,5,-1,7,-1,9,-1,-1,-1],"loss_changes":[1.4383688E12,4.3820905E11,0E0,5.0695003E11,0E0,1.2200418E11,0E0,3.6464124E10,0E0,0E0,0E0],"parents":[2147483647,0,0,1,1,3,3,5,5,7,7],"right_children":[2,4,-1,6,-1,8,-1,10,-1,-1,-1],"split_conditions":[5E0,3E0,2.6422604E4,1.03E2,-2.116662E4,2E0,1.3443773E4,6.3E1,-1.2219886E4,-4.565613E3,1.4195238E3],"split_indices":[1,2,0,0,0,2,0,0,0,0,0],"split_type":[0,0,0,0,0,0,0,0,0,0,0],"sum_hessian":[2.5E1,2.2E1,3E0,1.9E1,3E0,1.6E1,3E0,1.1E1,5E0,8E0,3E0],"tree_param":{"num_deleted":"0","num_feature":"19","num_nodes":"11","size_leaf_vector":"1"}},{"base_weights":[-5.0185454E3,-1.0414826E5,2.5833352E4,-2.2477898E5,-1.2623257E4,-1.7487555E3,-2.2664502E4,-1.1442644E5,1.2252023E4,-2.4288613E3,-6.7853955E3],"categories":[],"categories_nodes":[],"categories_segments":[],"categories_sizes":[],"default_left":[0,0,0,0,0,0,0,0,0,0,0],"id":48,"left_children":[1,3,-1,5,7,-1,-1,9,-1,-1,-1],"loss_changes":[1.2949589E12,2.2901778E11,0E0,3.744967E11,3.6904193E11,0E0,0E0,7.421354E9,0E0,0E0,0E0],"parents":[2147483647,0,0,1,1,3,3,4,4,7,7],"right_children":[2,4,-1,6,8,-1,-1,10,-1,-1,-1],"split_conditions":[5E0,1E0,2.5833352E4,1E1,7.569E3,-1.7487555E3,-2.2664502E4,1.5873017E-2,1.2252023E4,-2.4288613E3,-6.7853955E3],"split_indices":[1,14,0,4,11,0,0,9,0,0,0],"split_type":[0,0,0,0,0,0,0,0,0,0,0],"sum_hessian":[2.3E1,2E1,3E0,8E0,1.2E1,5E0,3E0,9E0,3E0,3E0,6E0],"tree_param":{"num_deleted":"0","num_feature":"19","num_nodes":"11","size_leaf_vector":"1"}},{"base_weights":[3.925668E4,-8.212895E4,3.485318E4,1.7131006E4,-2.274079E5,-8.363447E4,1.0761789E4,-1.7347053E4,-5.490891E3,-4.2610906E4,-6.725853E3,-4.2447153E3,5.162597E2],"categories":[],"categories_nodes":[],"categories_segments":[],"categories_sizes":[],"default_left":[0,0,0,0,0,0,0,0,0,0,0,0,0],"id":49,"left_children":[1,3,-1,5,7,9,-1,-1,-1,11,-1,-1,-1],"loss_changes":[2.0534568E12,3.2114416E11,0E0,2.9747085E11,8.840289E10,1.5141945E10,0E0,0E0,0E0,1.6544784E10,0E0,0E0,0E0],"parents":[2147483647,0,0,1,1,3,3,4,4,5,5,9,9],"right_children":[2,4,-1,6,8,10,-1,-1,-1,12,-1,-1,-1],"split_conditions":[1.96E4,3.1914894E-2,3.485318E4,2.6548672E-2,1E0,2.1978023E-2,1.0761789E4,-1.7347053E4,-5.490891E3,1.3E1,-6.725853E3,-4.2447153E3,5.162597E2],"split_indices":[11,9,0,9,15,9,0,0,0,4,0,0,0],"split_type":[0,0,0,0,0,0,0,0,0,0,0,0,0],"sum_hessian":[2.4E1,2.1E1,3E0,1.3E1,8E0,9E0,4E0,3E0,5E0,6E0,3E0,3E0,3E0],"tree_param":{"num_deleted":"0","num_feature":"19","num_nodes":"13","size_leaf_vector":"1"}},{"base_weights":[-1.3038782E4,-8.9551195E4,2.3421174E4,-4.0211433E3,-1.9804206E5,-8.848253E4,1.2518414E4,-6.996164E4,-2.0234617E4,-1.3151486E4,-1.0746E3,-3.5952656E1,-5.5681685E3,-3.5328208E3,2.274618E3],"categories":[],"categories_nodes":[],"categories_segments":[],"categories_sizes":[],"default_left":[0,0,0,0,0,0,0,0,0,0,0,0,0,0,0],"id":50,"left_children":[1,3,-1,5,7,9,-1,11,-1,-1,13,-1,-1,-1,-1],"loss_changes":[1.0734074E12,2.3118432E11,0E0,3.4444447E11,2.6283347E11,1.82799E11,0E0,2.2854013E10,0E0,0E0,3.2376248E10,0E0,0E0,0E0,0E0],"parents":[2147483647,0,0,1,1,3,3,4,4,5,5,7,7,10,10],"right_children":[2,4,-1,6,8,10,-1,12,-1,-1,14,-1,-1,-1,-1],"split_conditions":[3E0,2E0,2.3421174E4,1.03E2,1.5E0,1E0,1.2518414E4,1E0,-2.0234617E4,-1.3151486E4,4.9E1,-3.5952656E1,-5.5681685E3,-3.5328208E3,2.274618E3],"split_indices":[3,3,0,0,10,17,0,13,0,0,0,0,0,0,0],"split_type":[0,0,0,0,0,0,0,0,0,0,0,0,0,0,0],"sum_hessian":[2.7E1,2.4E1,3E0,1.4E1,1E1,1.1E1,3E0,7E0,3E0,3E0,8E0,3E0,4E0,3E0,5E0],"tree_param":{"num_deleted":"0","num_feature":"19","num_nodes":"15","size_leaf_vector":"1"}},{"base_weights":[-1.5408728E4,-9.294542E4,2.268318E4,-4.5189723E4,-1.6021323E4,-9.877091E4,1.036115E4,-4.1063457E4,-1.8358781E5,1.0813991E2,-4.23251E3,-2.5106394E3,-1.3553294E4],"categories":[],"categories_nodes":[],"categories_segments":[],"categories_sizes":[],"default_left":[0,0,0,0,0,0,0,0,0,0,0,0,0],"id":51,"left_children":[1,3,-1,5,-1,7,-1,9,11,-1,-1,-1,-1],"loss_changes":[1.0241645E12,2.4624441E11,0E0,3.044836E11,0E0,8.056344E10,0E0,2.2792186E10,6.806071E10,0E0,0E0,0E0,0E0],"parents":[2147483647,0,0,1,1,3,3,5,5,7,7,8,8],"right_children":[2,4,-1,6,-1,8,-1,10,12,-1,-1,-1,-1],"split_conditions":[2.9929E4,3E0,2.268318E4,1.0609E4,-1.6021323E4,1.4E1,1.036115E4,2E0,2E0,1.0813991E2,-4.23251E3,-2.5106394E3,-1.3553294E4],"split_indices":[11,2,0,11,0,4,0,2,1,0,0,0,0],"split_type":[0,0,0,0,0,0,0,0,0,0,0,0,0],"sum_hessian":[2.6E1,2.3E1,3E0,2E1,3E0,1.7E1,3E0,1.1E1,6E0,6E0,5E0,3E0,3E0],"tree_param":{"num_deleted":"0","num_feature":"19","num_nodes":"13","size_leaf_vector":"1"}},{"base_weights":[-1.1220947E5,-3.6315508E4,-1.966717E4,-1.10045586E5,1.0344191E4,-1.714501E5,-4.3236504E4,-1.1823448E4,-4.2572485E3,9.6607404E2,-4.8573604E3],"categories":[],"categories_nodes":[],"categories_segments":[],"categories_sizes":[],"default_left":[0,0,0,0,0,0,0,0,0,0,0],"id":52,"left_children":[1,3,-1,5,-1,7,9,-1,-1,-1,-1],"loss_changes":[4.977884E11,3.813888E11,0E0,5.8225148E10,0E0,2.4757502E10,3.2229933E10,0E0,0E0,0E0,0E0],"parents":[2147483647,0,0,1,1,3,3,5,5,6,6],"right_children":[2,4,-1,6,-1,8,10,-1,-1,-1,-1],"split_conditions":[3E0,1.07E2,-1.966717E4,1E0,1.0344191E4,3E0,2E0,-1.1823448E4,-4.2572485E3,9.6607404E2,-4.8573604E3],"split_indices":[2,0,0,15,0,8,3,0,0,0,0],"split_type":[0,0,0,0,0,0,0,0,0,0,0],"sum_hessian":[2.3E1,1.9E1,4E0,1.5E1,4E0,7E0,8E0,3E0,4E0,4E0,4E0],"tree_param":{"num_deleted":"0","num_feature":"19","num_nodes":"11","size_leaf_vector":"1"}},{"base_weights":[-2.0784797E4,-9.032357E4,1.3128323E4,-1.803986E4,-1.8068264E5,-4.795128E4,1.9407535E3,-4.2998936E3,-1.1509836E4,1.0428628E3,-5.238601E3],"categories":[],"categories_nodes":[],"categories_segments":[],"categories_sizes":[],"default_left":[0,0,0,0,0,0,0,0,0,0,0],"id":53,"left_children":[1,3,-1,5,7,9,-1,-1,-1,-1,-1],"loss_changes":[3.9809E11,1.0124431E11,0E0,1.886735E10,1.3021151E10,2.9553529E10,0E0,0E0,0E0,0E0,0E0],"parents":[2147483647,0,0,1,1,3,3,4,4,5,5],"right_children":[2,4,-1,6,8,10,-1,-1,-1,-1,-1],"split_conditions":[1.07E2,2E0,1.3128323E4,1E0,1.2E1,3E0,1.9407535E3,-4.2998936E3,-1.1509836E4,1.0428628E3,-5.238601E3],"split_indices":[0,2,0,15,4,8,0,0,0,0,0],"split_type":[0,0,0,0,0,0,0,0,0,0,0],"sum_hessian":[1.8E1,1.5E1,3E0,9E0,6E0,6E0,3E0,3E0,3E0,3E0,3E0],"tree_param":{"num_deleted":"0","num_feature":"19","num_nodes":"11","size_leaf_vector":"1"}},{"base_weights":[1.4697184E4,2.8068045E4,-8.5364266E4,1.2659519E4,-2.5848833E5,-4.7460637E4,9.492757E3,-4.9491567E3,-1.9662387E4,5.5423627E2,-6.820741E4,-5.1763413E3,9.117687E1],"categories":[],"categories_nodes":[],"categories_segments":[],"categories_sizes":[],"default_left":[0,0,0,0,0,0,0,0,0,0,0,0,0],"id":54,"left_children":[1,-1,3,5,7,9,-1,-1,-1,-1,11,-1,-1],"loss_changes":[1.4154191E12,0E0,3.7661842E11,1.6880607E11,1.3303366E11,1.5331588E10,0E0,0E0,0E0,0E0,2.244986E10,0E0,0E0],"parents":[2147483647,0,0,2,2,3,3,4,4,5,5,10,10],"right_children":[2,-1,4,6,8,10,-1,-1,-1,-1,12,-1,-1],"split_conditions":[2E-2,2.8068045E4,4E0,9.4E1,1E0,2.3121387E-2,9.492757E3,-4.9491567E3,-1.9662387E4,5.5423627E2,6.3E1,-5.1763413E3,9.117687E1],"split_indices":[9,0,1,0,18,9,0,0,0,0,0,0,0],"split_type":[0,0,0,0,0,0,0,0,0,0,0,0,0],"sum_hessian":[2.4E1,3E0,2.1E1,1.4E1,7E0,1.1E1,3E0,4E0,3E0,3E0,8E0,5E0,3E0],"tree_param":{"num_deleted":"0","num_feature":"19","num_nodes":"13","size_leaf_vector":"1"}},{"base_weights":[9.816279E3,-8.489431E4,2.2861877E4,-2.6738346E4,-1.4814729E4,-1.09932305E5,8.913741E3,-2.0621426E4,-1.4169935E4,-2.707332E3,8.514028E2],"categories":[],"categories_nodes":[],"categories_segments":[],"categories_sizes":[],"default_left":[0,0,0,0,0,0,0,0,0,0,0],"id":55,"left_children":[1,3,-1,5,-1,7,-1,9,-1,-1,-1],"loss_changes":[9.7107857E11,2.2566706E11,0E0,2.9249185E11,0E0,1.800651E11,0E0,1.2281879E10,0E0,0E0,0E0],"parents":[2147483647,0,0,1,1,3,3,5,5,7,7],"right_children":[2,4,-1,6,-1,8,-1,10,-1,-1,-1],"split_conditions":[3E0,1.7E1,2.2861877E4,1E0,-1.4814729E4,7.8E1,8.913741E3,7E0,-1.4169935E4,-2.707332E3,8.514028E2],"split_indices":[3,4,0,16,0,0,0,4,0,0,0],"split_type":[0,0,0,0,0,0,0,0,0,0,0],"sum_hessian":[2.1E1,1.8E1,3E0,1.5E1,3E0,1.1E1,4E0,8E0,3E0,4E0,4E0],"tree_param":{"num_deleted":"0","num_feature":"19","num_nodes":"11","size_leaf_vector":"1"}},{"base_weights":[3.4478965E4,-6.4981215E4,2.4914756E4,-1.316678E5,4.31713E4,-9.2572734E4,-9.335736E3,1.1094416E4,-5.4218276E3,-5.841671E3,-1.6519254E3],"categories":[],"categories_nodes":[],"categories_segments":[],"categories_sizes":[],"default_left":[0,0,0,0,0,0,0,0,0,0,0],"id":56,"left_children":[1,3,-1,5,7,9,-1,-1,-1,-1,-1],"loss_changes":[1.04726705E12,1.427184E11,0E0,8.5400453E9,2.4082004E11,9.139053E9,0E0,0E0,0E0,0E0,0E0],"parents":[2147483647,0,0,1,1,3,3,4,4,5,5],"right_children":[2,4,-1,6,8,10,-1,-1,-1,-1,-1],"split_conditions":[1.6E2,1.3E1,2.4914756E4,4E0,1.7E1,7.8E1,-9.335736E3,1.1094416E4,-5.4218276E3,-5.841671E3,-1.6519254E3],"split_indices":[0,4,0,1,4,0,0,0,0,0,0],"split_type":[0,0,0,0,0,0,0,0,0,0,0],"sum_hessian":[2.1E1,1.8E1,3E0,1.1E1,7E0,8E0,3E0,3E0,4E0,5E0,3E0],"tree_param":{"num_deleted":"0","num_feature":"19","num_nodes":"11","size_leaf_vector":"1"}},{"base_weights":[-1.8037018E4,1.9368041E4,-1.0935302E5,-1.6469748E4,-1.771484E4,7.710529E4,-1.3137984E5,8.831221E3,-2.886934E3,-9.861839E2,-9.721439E3],"categories":[],"categories_nodes":[],"categories_segments":[],"categories_sizes":[],"default_left":[0,0,0,0,0,0,0,0,0,0,0],"id":57,"left_children":[1,-1,3,5,-1,7,9,-1,-1,-1,-1],"loss_changes":[1.0048612E12,0E0,4.9469073E11,1.9292627E11,0E0,1.4439357E11,5.248354E10,0E0,0E0,0E0,0E0],"parents":[2147483647,0,0,2,2,3,3,5,5,6,6],"right_children":[2,-1,4,6,-1,8,10,-1,-1,-1,-1],"split_conditions":[2E-2,1.9368041E4,3E0,3.1914894E-2,-1.771484E4,2E0,8E0,8.831221E3,-2.886934E3,-9.861839E2,-9.721439E3],"split_indices":[9,0,2,9,0,3,4,0,0,0,0],"split_type":[0,0,0,0,0,0,0,0,0,0,0],"sum_hessian":[2.5E1,4E0,2.1E1,1.6E1,5E0,9E0,7E0,5E0,4E0,3E0,4E0],"tree_param":{"num_deleted":"0","num_feature":"19","num_nodes":"11","size_leaf_vector":"1"}},{"base_weights":[-2.6832125E4,-1.164008E5,1.8631822E4,-5.2251145E4,-1.960057E4,-1.0451618E5,8.493588E3,-4.5930848E4,-1.1210887E4,-5.5623267E3,3.164E1],"categories":[],"categories_nodes":[],"categories_segments":[],"categories_sizes":[],"default_left":[0,0,0,0,0,0,0,0,0,0,0],"id":58,"left_children":[1,3,-1,5,-1,7,-1,9,-1,-1,-1],"loss_changes":[9.736517E11,3.6848402E11,0E0,2.383303E11,0E0,1.0190553E11,0E0,3.656644E10,0E0,0E0,0E0],"parents":[2147483647,0,0,1,1,3,3,5,5,7,7],"right_children":[2,4,-1,6,-1,8,-1,10,-1,-1,-1],"split_conditions":[5E0,1.9E1,1.8631822E4,1.07E2,-1.960057E4,1.4E1,8.493588E3,1E0,-1.1210887E4,-5.5623267E3,3.164E1],"split_indices":[1,4,0,0,0,4,0,17,0,0,0],"split_type":[0,0,0,0,0,0,0,0,0,0,0],"sum_hessian":[2.5E1,2.1E1,4E0,1.8E1,3E0,1.5E1,3E0,1.1E1,4E0,4E0,7E0],"tree_param":{"num_deleted":"0","num_feature":"19","num_nodes":"11","size_leaf_vector":"1"}},{"base_weights":[-1.2144524E5,-3.1661682E4,-1.7031357E4,-1.0785211E5,1.119363E4,-4.287088E4,-8.825919E3,3.391097E2,-3.700959E3],"categories":[],"categories_nodes":[],"categories_segments":[],"categories_sizes":[],"default_left":[0,0,0,0,0,0,0,0,0],"id":59,"left_children":[1,3,-1,5,-1,7,-1,-1,-1],"loss_changes":[4.0247273E11,3.356534E11,0E0,5.0438734E10,0E0,1.287489E10,0E0,0E0,0E0],"parents":[2147483647,0,0,1,1,3,3,5,5],"right_children":[2,4,-1,6,-1,8,-1,-1,-1],"split_conditions":[3E0,1.07E2,-1.7031357E4,1.4E1,1.119363E4,2E0,-8.825919E3,3.391097E2,-3.700959E3],"split_indices":[2,0,0,4,0,3,0,0,0],"split_type":[0,0,0,0,0,0,0,0,0],"sum_hessian":[2E1,1.5E1,5E0,1.2E1,3E0,7E0,5E0,3E0,4E0],"tree_param":{"num_deleted":"0","num_feature":"19","num_nodes":"9","size_leaf_vector":"1"}},{"base_weights":[-8.180893E4,-4.481716E4,-1.1410546E4,-9.921589E4,7.9990845E3,-9.23284E3,-5.2149625E4,4.849753E2,-7.167433E4,-3.8998026E2,-5.6478765E3],"categories":[],"categories_nodes":[],"categories_segments":[],"categories_sizes":[],"default_left":[0,0,0,0,0,0,0,0,0,0,0],"id":60,"left_children":[1,3,-1,5,-1,-1,7,-1,9,-1,-1],"loss_changes":[1.3057958E11,2.6097023E11,0E0,6.275511E10,0E0,0E0,1.6393822E10,0E0,2.548849E10,0E0,0E0],"parents":[2147483647,0,0,1,1,3,3,6,6,8,8],"right_children":[2,4,-1,6,-1,-1,8,-1,10,-1,-1],"split_conditions":[3E0,1.07E2,-1.1410546E4,1E0,7.9990845E3,-9.23284E3,3E0,4.849753E2,1.1E1,-3.8998026E2,-5.6478765E3],"split_indices":[2,0,0,17,0,0,8,0,4,0,0],"split_type":[0,0,0,0,0,0,0,0,0,0,0],"sum_hessian":[2.5E1,2.1E1,4E0,1.7E1,4E0,5E0,1.2E1,3E0,9E0,4E0,5E0],"tree_param":{"num_deleted":"0","num_feature":"19","num_nodes":"11","size_leaf_vector":"1"}},{"base_weights":[1.2027918E4,-7.8305875E4,1.8547877E4,-1.7239212E5,-2.5669467E4,-1.1621448E4,-3.4628613E3,-5.2073434E4,2.6679395E3,2.558097E2,-7.415908E4,-4.8814404E3,-1.3141066E3],"categories":[],"categories_nodes":[],"categories_segments":[],"categories_sizes":[],"default_left":[0,0,0,0,0,0,0,0,0,0,0,0,0],"id":61,"left_children":[1,3,-1,5,7,-1,-1,9,-1,-1,11,-1,-1],"loss_changes":[8.0721157E11,9.462201E10,0E0,2.7245855E10,3.1991808E10,0E0,0E0,1.4273188E10,0E0,0E0,6.4233677E9,0E0,0E0],"parents":[2147483647,0,0,1,1,3,3,4,4,7,7,10,10],"right_children":[2,4,-1,6,8,-1,-1,10,-1,-1,12,-1,-1],"split_conditions":[5E0,1E0,1.8547877E4,3E0,3E0,-1.1621448E4,-3.4628613E3,1E0,2.6679395E3,2.558097E2,2E0,-4.8814404E3,-1.3141066E3],"split_indices":[1,17,0,8,1,0,0,14,0,0,1,0,0],"split_type":[0,0,0,0,0,0,0,0,0,0,0,0,0],"sum_hessian":[2.3E1,1.9E1,4E0,6E0,1.3E1,3E0,3E0,1E1,3E0,3E0,7E0,4E0,3E0],"tree_param":{"num_deleted":"0","num_feature":"19","num_nodes":"13","size_leaf_vector":"1"}},{"base_weights":[-1.14874055E5,-7.992359E4,-1.123555E4,-1.4133934E4,-1.3772089E5,-3.5385656E4,1.3295018E3,-9.691662E3,-8.5982266E4,-2.7757075E3,-3.2053625E2,-2.075862E3,-5.447585E3],"categories":[],"categories_nodes":[],"categories_segments":[],"categories_sizes":[],"default_left":[0,0,0,0,0,0,0,0,0,0,0,0,0],"id":62,"left_children":[1,3,-1,5,7,9,-1,-1,11,-1,-1,-1,-1],"loss_changes":[7.0333825E10,7.030028E10,0E0,9.595451E9,1.2365513E10,3.7266596E9,0E0,0E0,2.625966E9,0E0,0E0,0E0,0E0],"parents":[2147483647,0,0,1,1,3,3,4,4,5,5,8,8],"right_children":[2,4,-1,6,8,10,-1,-1,12,-1,-1,-1,-1],"split_conditions":[3E0,1E1,-1.123555E4,9.4E1,1E0,5E0,1.3295018E3,-9.691662E3,1E0,-2.7757075E3,-3.2053625E2,-2.075862E3,-5.447585E3],"split_indices":[2,4,0,0,17,4,0,0,15,0,0,0,0],"split_type":[0,0,0,0,0,0,0,0,0,0,0,0,0],"sum_hessian":[2.2E1,1.8E1,4E0,9E0,9E0,6E0,3E0,3E0,6E0,3E0,3E0,3E0,3E0],"tree_param":{"num_deleted":"0","num_feature":"19","num_nodes":"13","size_leaf_vector":"1"}},{"base_weights":[5.5861438E4,-8.574897E4,3.5133212E5,-9.165711E3,-4.608146E4,1.5734269E3,2.916813E4,-4.0821052E3,-9.017834E3,3.3641316E3,-4.1531934E3],"categories":[],"categories_nodes":[],"categories_segments":[],"categories_sizes":[],"default_left":[0,0,0,0,0,0,0,0,0,0,0],"id":63,"left_children":[1,3,5,-1,7,-1,-1,-1,9,-1,-1],"loss_changes":[9.088025E11,4.960515E10,5.0116926E11,0E0,1.5079834E10,0E0,0E0,0E0,4.513698E10,0E0,0E0],"parents":[2147483647,0,0,1,1,2,2,4,4,8,8],"right_children":[2,4,6,-1,8,-1,-1,-1,10,-1,-1],"split_conditions":[1.03E2,1E0,3E0,-9.165711E3,6.3E1,1.5734269E3,2.916813E4,-4.0821052E3,2E0,3.3641316E3,-4.1531934E3],"split_indices":[0,14,5,0,0,0,0,0,3,0,0],"split_type":[0,0,0,0,0,0,0,0,0,0,0],"sum_hessian":[2E1,1.4E1,6E0,3E0,1.1E1,3E0,3E0,5E0,6E0,3E0,3E0],"tree_param":{"num_deleted":"0","num_feature":"19","num_nodes":"11","size_leaf_vector":"1"}},{"base_weights":[1.7654658E4,-6.776251E4,2.2016342E4,-4.224056E3,-1.2876651E4,-5.2907742E4,7.7526953E3,-5.024421E3,-2.0595385E4,-4.151847E3,1.2232435E3],"categories":[],"categories_nodes":[],"categories_segments":[],"categories_sizes":[],"default_left":[0,0,0,0,0,0,0,0,0,0,0],"id":64,"left_children":[1,3,-1,5,-1,7,-1,-1,9,-1,-1],"loss_changes":[8.602173E11,2.4006661E11,0E0,1.3227137E11,0E0,1.7917157E10,0E0,0E0,2.7354186E10,0E0,0E0],"parents":[2147483647,0,0,1,1,3,3,5,5,8,8],"right_children":[2,4,-1,6,-1,8,-1,-1,10,-1,-1],"split_conditions":[3E0,1.1664E4,2.2016342E4,7.569E3,-1.2876651E4,1.923077E-2,7.7526953E3,-5.024421E3,2.5E3,-4.151847E3,1.2232435E3],"split_indices":[3,11,0,11,0,9,0,0,11,0,0],"split_type":[0,0,0,0,0,0,0,0,0,0,0],"sum_hessian":[2.2E1,1.9E1,3E0,1.5E1,4E0,1.2E1,3E0,4E0,8E0,3E0,5E0],"tree_param":{"num_deleted":"0","num_feature":"19","num_nodes":"11","size_leaf_vector":"1"}},{"base_weights":[-1.4674092E4,-1.0304585E5,2.2647307E4,-3.997026E4,-1.8056225E4,8.3806635E2,-6.3079445E4,4.770128E2,-8.581939E4,-5.11902E3,-1.769138E3],"categories":[],"categories_nodes":[],"categories_segments":[],"categories_sizes":[],"default_left":[0,0,0,0,0,0,0,0,0,0,0],"id":65,"left_children":[1,3,-1,5,-1,-1,7,-1,9,-1,-1],"loss_changes":[1.0384603E12,3.274134E11,0E0,2.4655671E10,0E0,0E0,2.2286533E10,0E0,4.7303066E9,0E0,0E0],"parents":[2147483647,0,0,1,1,3,3,6,6,8,8],"right_children":[2,4,-1,6,-1,-1,8,-1,10,-1,-1],"split_conditions":[5E0,1.9E1,2.2647307E4,1E0,-1.8056225E4,8.3806635E2,1E0,4.770128E2,8E1,-5.11902E3,-1.769138E3],"split_indices":[1,4,0,13,0,0,14,0,0,0,0],"split_type":[0,0,0,0,0,0,0,0,0,0,0],"sum_hessian":[2.3E1,2E1,3E0,1.7E1,3E0,5E0,1.2E1,3E0,9E0,6E0,3E0],"tree_param":{"num_deleted":"0","num_feature":"19","num_nodes":"11","size_leaf_vector":"1"}},{"base_weights":[4.783042E4,-6.5843336E4,2.5949314E4,-9.828722E3,-2.3788484E4,-8.6993164E4,7.7985737E3,-1.4152811E5,3.37719E2,-2.5391848E3,-9.844523E3],"categories":[],"categories_nodes":[],"categories_segments":[],"categories_sizes":[],"default_left":[0,0,0,0,0,0,0,0,0,0,0],"id":66,"left_children":[1,3,-1,-1,5,7,-1,9,-1,-1,-1],"loss_changes":[1.1053329E12,8.878768E10,0E0,0E0,1.7263183E11,5.7193636E10,0E0,2.5167938E10,0E0,0E0,0E0],"parents":[2147483647,0,0,1,1,4,4,5,5,7,7],"right_children":[2,4,-1,-1,6,8,-1,10,-1,-1,-1],"split_conditions":[5E0,2E0,2.5949314E4,-9.828722E3,1.0609E4,4E0,7.7985737E3,2.3809524E-2,3.37719E2,-2.5391848E3,-9.844523E3],"split_indices":[1,5,0,0,11,5,0,9,0,0,0],"split_type":[0,0,0,0,0,0,0,0,0,0,0],"sum_hessian":[1.9E1,1.6E1,3E0,3E0,1.3E1,1E1,3E0,6E0,4E0,3E0,3E0],"tree_param":{"num_deleted":"0","num_feature":"19","num_nodes":"11","size_leaf_vector":"1"}},{"base_weights":[-1.4939312E4,-8.177004E4,2.0324377E4,-2.8079846E4,-1.7831178E4,-6.89721E4,6.2374116E3,-3.4616184E4,-9.028187E3,-2.9896365E3,6.557033E2],"categories":[],"categories_nodes":[],"categories_segments":[],"categories_sizes":[],"default_left":[0,0,0,0,0,0,0,0,0,0,0],"id":67,"left_children":[1,3,-1,5,-1,7,-1,9,-1,-1,-1],"loss_changes":[8.218378E11,3.5890948E11,0E0,1.460928E11,0E0,6.275855E10,0E0,1.880937E10,0E0,0E0,0E0],"parents":[2147483647,0,0,1,1,3,3,5,5,7,7],"right_children":[2,4,-1,6,-1,8,-1,10,-1,-1,-1],"split_conditions":[3E0,3E0,2.0324377E4,1.07E2,-1.7831178E4,9E1,6.2374116E3,2.6548672E-2,-9.028187E3,-2.9896365E3,6.557033E2],"split_indices":[3,2,0,0,0,0,0,9,0,0,0],"split_type":[0,0,0,0,0,0,0,0,0,0,0],"sum_hessian":[2.7E1,2.4E1,3E0,2.1E1,3E0,1.7E1,4E0,1.4E1,3E0,9E0,5E0],"tree_param":{"num_deleted":"0","num_feature":"19","num_nodes":"11","size_leaf_vector":"1"}},{"base_weights":[-1.5862572E4,-8.036515E4,1.9562209E4,-2.8914904E4,-1.716251E4,-1.3872111E5,3.157606E4,-9.56767E3,-1.9125231E3,-2.2927658E4,9.359661E3,-3.5297427E3,4.0263332E1],"categories":[],"categories_nodes":[],"categories_segments":[],"categories_sizes":[],"default_left":[0,0,0,0,0,0,0,0,0,0,0,0,0],"id":68,"left_children":[1,3,-1,5,-1,7,9,-1,-1,11,-1,-1,-1],"loss_changes":[7.667065E11,3.282124E11,0E0,1.505105E11,0E0,3.498464E10,1.3151764E11,0E0,0E0,1.3632238E10,0E0,0E0,0E0],"parents":[2147483647,0,0,1,1,3,3,5,5,6,6,9,9],"right_children":[2,4,-1,6,-1,8,10,-1,-1,12,-1,-1,-1],"split_conditions":[3E0,3E0,1.9562209E4,1E0,-1.716251E4,2E0,9.4E1,-9.56767E3,-1.9125231E3,5E1,9.359661E3,-3.5297427E3,4.0263332E1],"split_indices":[3,2,0,17,0,3,0,0,0,0,0,0,0],"split_type":[0,0,0,0,0,0,0,0,0,0,0,0,0],"sum_hessian":[2.7E1,2.4E1,3E0,2.1E1,3E0,7E0,1.4E1,4E0,3E0,1.1E1,3E0,3E0,8E0],"tree_param":{"num_deleted":"0","num_feature":"19","num_nodes":"13","size_leaf_vector":"1"}},{"base_weights":[5.1100633E4,1.7754156E5,-1.512631E5,-3.9113734E4,3.6447918E4,-3.3212106E2,-1.6518916E4,-2.9328464E2,-5.7274645E4,-4.3179434E3,-6.9358704E2],"categories":[],"categories_nodes":[],"categories_segments":[],"categories_sizes":[],"default_left":[0,0,0,0,0,0,0,0,0,0,0],"id":69,"left_children":[1,3,5,7,-1,-1,-1,-1,9,-1,-1],"loss_changes":[5.897708E11,1.7010553E12,2.3093933E11,6.306001E9,0E0,0E0,0E0,0E0,7.6384174E9,0E0,0E0],"parents":[2147483647,0,0,1,1,2,2,3,3,8,8],"right_children":[2,4,6,8,-1,-1,-1,-1,10,-1,-1],"split_conditions":[4E0,9E1,4E0,5.5E1,3.6447918E4,-3.3212106E2,-1.6518916E4,-2.9328464E2,7.8E1,-4.3179434E3,-6.9358704E2],"split_indices":[5,0,1,0,0,0,0,0,0,0,0],"split_type":[0,0,0,0,0,0,0,0,0,0,0],"sum_hessian":[2.1E1,1.3E1,8E0,1E1,3E0,5E0,3E0,4E0,6E0,3E0,3E0],"tree_param":{"num_deleted":"0","num_feature":"19","num_nodes":"11","size_leaf_vector":"1"}},{"base_weights":[-5.5094875E4,2.5773553E5,-1.8066653E5,-4.1686265E3,2.6720488E4,-2.5615571E3,-2.775818E5,2.0178997E3,-2.242037E3,-1.919002E5,-1.8977477E4,-1.3865854E4,-4.259333E3],"categories":[],"categories_nodes":[],"categories_segments":[],"categories_sizes":[],"default_left":[0,0,0,0,0,0,0,0,0,0,0,0,0],"id":70,"left_children":[1,3,5,-1,-1,7,9,-1,-1,11,-1,-1,-1],"loss_changes":[9.5006464E11,7.051857E11,2.927275E11,0E0,0E0,1.4511906E10,2.3268622E10,0E0,0E0,4.929736E10,0E0,0E0,0E0],"parents":[2147483647,0,0,1,1,2,2,5,5,6,6,9,9],"right_children":[2,4,6,-1,-1,8,10,-1,-1,12,-1,-1,-1],"split_conditions":[2E-2,7.1E1,2E0,-4.1686265E3,2.6720488E4,3.1914894E-2,1.4E2,2.0178997E3,-2.242037E3,1E0,-1.8977477E4,-1.3865854E4,-4.259333E3],"split_indices":[9,0,2,0,0,9,0,0,0,15,0,0,0],"split_type":[0,0,0,0,0,0,0,0,0,0,0,0,0],"sum_hessian":[2.2E1,6E0,1.6E1,3E0,3E0,6E0,1E1,3E0,3E0,7E0,3E0,3E0,4E0],"tree_param":{"num_deleted":"0","num_feature":"19","num_nodes":"13","size_leaf_vector":"1"}},{"base_weights":[-6.3441836E3,-8.021951E4,2.0077807E4,-2.088292E4,-1.710067E4,-1.3372823E5,4.148631E4,-1.0062042E4,-1.639177E3,-1.5292527E4,8.653093E3,1.426821E3,-3.2414392E3],"categories":[],"categories_nodes":[],"categories_segments":[],"categories_sizes":[],"default_left":[0,0,0,0,0,0,0,0,0,0,0,0,0],"id":71,"left_children":[1,3,-1,5,-1,7,9,-1,-1,11,-1,-1,-1],"loss_changes":[7.855568E11,3.346048E11,0E0,1.3927132E11,0E0,4.1107866E10,9.976575E10,0E0,0E0,2.3561202E10,0E0,0E0,0E0],"parents":[2147483647,0,0,1,1,3,3,5,5,6,6,9,9],"right_children":[2,4,-1,6,-1,8,10,-1,-1,12,-1,-1,-1],"split_conditions":[5E0,1.9E1,2.0077807E4,1E0,-1.710067E4,4E0,3E0,-1.0062042E4,-1.639177E3,1.4E1,8.653093E3,1.426821E3,-3.2414392E3],"split_indices":[1,4,0,17,0,5,1,0,0,4,0,0,0],"split_type":[0,0,0,0,0,0,0,0,0,0,0,0,0],"sum_hessian":[2.4E1,2.1E1,3E0,1.8E1,3E0,6E0,1.2E1,3E0,3E0,9E0,3E0,5E0,4E0],"tree_param":{"num_deleted":"0","num_feature":"19","num_nodes":"13","size_leaf_vector":"1"}},{"base_weights":[-9.490401E3,-8.105687E4,1.9324889E4,-2.2182002E4,-1.7022412E4,-5.7825062E4,6.2967866E3,-2.6019E2,-1.3179986E5,-1.7041627E3,2.9497598E3,-9.55418E3,-1.9783066E3],"categories":[],"categories_nodes":[],"categories_segments":[],"categories_sizes":[],"default_left":[0,0,0,0,0,0,0,0,0,0,0,0,0],"id":72,"left_children":[1,3,-1,5,-1,7,-1,9,11,-1,-1,-1,-1],"loss_changes":[7.398151E11,3.2842406E11,0E0,1.07590255E11,0E0,6.8099297E10,0E0,2.205273E10,3.0715265E10,0E0,0E0,0E0,0E0],"parents":[2147483647,0,0,1,1,3,3,5,5,7,7,8,8],"right_children":[2,4,-1,6,-1,8,-1,10,12,-1,-1,-1,-1],"split_conditions":[5E0,3E0,1.9324889E4,6E0,-1.7022412E4,2E0,6.2967866E3,6.3E1,4E0,-1.7041627E3,2.9497598E3,-9.55418E3,-1.9783066E3],"split_indices":[1,2,0,8,0,2,0,0,8,0,0,0,0],"split_type":[0,0,0,0,0,0,0,0,0,0,0,0,0],"sum_hessian":[2.4E1,2.1E1,3E0,1.8E1,3E0,1.5E1,3E0,9E0,6E0,6E0,3E0,3E0,3E0],"tree_param":{"num_deleted":"0","num_feature":"19","num_nodes":"13","size_leaf_vector":"1"}},{"base_weights":[3.7215055E4,-3.638284E4,1.979504E4,-7.71894E4,3.584868E3,8.983862E3,-1.53714E5,-2.5692065E3,4.109896E3,-3.8565195E3,-1.0550749E4],"categories":[],"categories_nodes":[],"categories_segments":[],"categories_sizes":[],"default_left":[0,0,0,0,0,0,0,0,0,0,0],"id":73,"left_children":[1,3,-1,5,-1,7,9,-1,-1,-1,-1],"loss_changes":[6.215699E11,9.374191E10,0E0,1.0029658E11,0E0,3.9581954E10,1.883082E10,0E0,0E0,0E0,0E0],"parents":[2147483647,0,0,1,1,3,3,5,5,6,6],"right_children":[2,4,-1,6,-1,8,10,-1,-1,-1,-1],"split_conditions":[1.6E2,1E0,1.979504E4,2E0,3.584868E3,5E1,1.3E1,-2.5692065E3,4.109896E3,-3.8565195E3,-1.0550749E4],"split_indices":[0,18,0,2,0,0,4,0,0,0,0],"split_type":[0,0,0,0,0,0,0,0,0,0,0],"sum_hessian":[2.2E1,1.9E1,3E0,1.4E1,5E0,7E0,7E0,4E0,3E0,4E0,3E0],"tree_param":{"num_deleted":"0","num_feature":"19","num_nodes":"11","size_leaf_vector":"1"}},{"base_weights":[5.2328344E4,-5.995835E4,1.8936139E4,-2.8750459E4,-3.8784556E3,-3.377248E3,8.6158154E2],"categories":[],"categories_nodes":[],"categories_segments":[],"categories_sizes":[],"default_left":[0,0,0,0,0,0,0],"id":74,"left_children":[1,3,-1,5,-1,-1,-1],"loss_changes":[7.190529E11,6.0137554E9,0E0,1.365088E10,0E0,0E0,0E0],"parents":[2147483647,0,0,1,1,3,3],"right_children":[2,4,-1,6,-1,-1,-1],"split_conditions":[1.6E1,8E0,1.8936139E4,1E0,-3.8784556E3,-3.377248E3,8.6158154E2],"split_indices":[4,4,0,15,0,0,0],"split_type":[0,0,0,0,0,0,0],"sum_hessian":[1.8E1,1.4E1,4E0,6E0,8E0,3E0,3E0],"tree_param":{"num_deleted":"0","num_feature":"19","num_nodes":"7","size_leaf_vector":"1"}},{"base_weights":[4.9693833E3,2.7075234E5,-8.830312E4,-2.2917356E3,2.5982568E4,-2.2530082E4,-1.7288137E4,-6.936694E4,7.3515703E3,-2.0142537E4,-9.369614E3,6.818073E2,-3.1702102E3],"categories":[],"categories_nodes":[],"categories_segments":[],"categories_sizes":[],"default_left":[0,0,0,0,0,0,0,0,0,0,0,0,0],"id":75,"left_children":[1,3,5,-1,-1,7,-1,9,-1,11,-1,-1,-1],"loss_changes":[6.684546E11,5.7540556E11,3.3088792E11,0E0,0E0,1.4520848E11,0E0,7.756159E10,0E0,1.6939137E10,0E0,0E0,0E0],"parents":[2147483647,0,0,1,1,2,2,5,5,7,7,9,9],"right_children":[2,4,6,-1,-1,8,-1,10,-1,12,-1,-1,-1],"split_conditions":[2.173913E-2,1.8181818E-2,3E0,-2.2917356E3,2.5982568E4,1.07E2,-1.7288137E4,1.1E1,7.3515703E3,1E0,-9.369614E3,6.818073E2,-3.1702102E3],"split_indices":[9,9,2,0,0,0,0,4,0,16,0,0,0],"split_type":[0,0,0,0,0,0,0,0,0,0,0,0,0],"sum_hessian":[2.5E1,6E0,1.9E1,3E0,3E0,1.6E1,3E0,1.3E1,3E0,1E1,3E0,6E0,4E0],"tree_param":{"num_deleted":"0","num_feature":"19","num_nodes":"13","size_leaf_vector":"1"}},{"base_weights":[-1.005726E5,-5.7404555E4,-1.7254116E5,4.325659E2,-8.469205E4,-1.3046934E4,-2.050416E3,-5.253603E3,-2.1648804E3],"categories":[],"categories_nodes":[],"categories_segments":[],"categories_sizes":[],"default_left":[0,0,0,0,0,0,0,0,0],"id":76,"left_children":[1,3,5,-1,7,-1,-1,-1,-1],"loss_changes":[5.223016E10,2.5967698E10,7.068954E10,0E0,3.886809E9,0E0,0E0,0E0,0E0],"parents":[2147483647,0,0,1,1,2,2,4,4],"right_children":[2,4,6,-1,8,-1,-1,-1,-1],"split_conditions":[1.5E0,4E0,1E0,4.325659E2,4E0,-1.3046934E4,-2.050416E3,-5.253603E3,-2.1648804E3],"split_indices":[10,8,15,0,5,0,0,0,0],"split_type":[0,0,0,0,0,0,0,0,0],"sum_hessian":[1.9E1,1.3E1,6E0,4E0,9E0,3E0,3E0,5E0,4E0],"tree_param":{"num_deleted":"0","num_feature":"19","num_nodes":"9","size_leaf_vector":"1"}},{"base_weights":[-2.845234E4,2.2218775E5,-1.4472695E5,-2.3323008E3,2.5134152E4,-4.5722934E4,-1.593069E4,-1.2278747E5,4.3362446E3,-2.5265303E3,-9.120583E3],"categories":[],"categories_nodes":[],"categories_segments":[],"categories_sizes":[],"default_left":[0,0,0,0,0,0,0,0,0,0,0],"id":77,"left_children":[1,3,5,-1,-1,7,-1,9,-1,-1,-1],"loss_changes":[7.315904E11,6.2670104E11,2.7809546E11,0E0,0E0,1.331331E11,0E0,2.5248662E10,0E0,0E0,0E0],"parents":[2147483647,0,0,1,1,2,2,5,5,7,7],"right_children":[2,4,6,-1,-1,8,-1,10,-1,-1,-1],"split_conditions":[2.173913E-2,1.8181818E-2,3E0,-2.3323008E3,2.5134152E4,5E0,-1.593069E4,2E0,4.3362446E3,-2.5265303E3,-9.120583E3],"split_indices":[9,9,2,0,0,8,0,2,0,0,0],"split_type":[0,0,0,0,0,0,0,0,0,0,0],"sum_hessian":[2.3E1,7E0,1.6E1,4E0,3E0,1.1E1,5E0,7E0,4E0,4E0,3E0],"tree_param":{"num_deleted":"0","num_feature":"19","num_nodes":"11","size_leaf_vector":"1"}},{"base_weights":[1.9519115E4,1.148595E5,-1.348776E4,-2.6450916E4,2.437784E4,-3.1120159E3,1.8229941E4,2.729498E3,-1.1343768E3],"categories":[],"categories_nodes":[],"categories_segments":[],"categories_sizes":[],"default_left":[0,0,0,0,0,0,0,0,0],"id":78,"left_children":[1,3,-1,5,-1,-1,7,-1,-1],"loss_changes":[6.65313E11,9.608845E11,0E0,2.3522054E10,0E0,0E0,1.1652837E10,0E0,0E0],"parents":[2147483647,0,0,1,1,3,3,6,6],"right_children":[2,4,-1,6,-1,-1,8,-1,-1],"split_conditions":[1.8E1,1.3E1,-1.348776E4,1E0,2.437784E4,-3.1120159E3,7E1,2.729498E3,-1.1343768E3],"split_indices":[4,4,0,15,0,0,0,0,0],"split_type":[0,0,0,0,0,0,0,0,0],"sum_hessian":[2.2E1,1.7E1,5E0,1.3E1,4E0,7E0,6E0,3E0,3E0],"tree_param":{"num_deleted":"0","num_feature":"19","num_nodes":"9","size_leaf_vector":"1"}},{"base_weights":[1.1965658E3,-5.2820887E4,1.6250108E4,8.157524E3,-1.2562788E5,-5.5532246E4,9.063252E3,-1.3383726E3,-1.0177516E4,-3.8525424E2,-7.250428E4,-1.6117495E3,-4.5109424E3],"categories":[],"categories_nodes":[],"categories_segments":[],"categories_sizes":[],"default_left":[0,0,0,0,0,0,0,0,0,0,0,0,0],"id":79,"left_children":[1,3,-1,5,7,9,-1,-1,-1,-1,11,-1,-1],"loss_changes":[4.8942806E11,1.0757654E11,0E0,1.6441857E11,7.928935E10,8.370311E9,0E0,0E0,0E0,0E0,2.7986043E9,0E0,0E0],"parents":[2147483647,0,0,1,1,3,3,4,4,5,5,10,10],"right_children":[2,4,-1,6,8,10,-1,-1,-1,-1,12,-1,-1],"split_conditions":[2.56E4,3.1914894E-2,1.6250108E4,2.6548672E-2,8.1E3,3.025E3,9.063252E3,-1.3383726E3,-1.0177516E4,-3.8525424E2,1.5873017E-2,-1.6117495E3,-4.5109424E3],"split_indices":[11,9,0,9,11,11,0,0,0,0,9,0,0],"split_type":[0,0,0,0,0,0,0,0,0,0,0,0,0],"sum_hessian":[2.6E1,2.3E1,3E0,1.3E1,1E1,1E1,3E0,5E0,5E0,3E0,7E0,3E0,4E0],"tree_param":{"num_deleted":"0","num_feature":"19","num_nodes":"13","size_leaf_vector":"1"}},{"base_weights":[-4.3669585E3,1.4604023E4,-9.308285E4,-3.7223895E4,-1.5360633E4,-7.0989995E3,1.8256133E4,-4.1564793E4,5.5159204E3,3.919875E1,-3.3565435E3],"categories":[],"categories_nodes":[],"categories_segments":[],"categories_sizes":[],"default_left":[0,0,0,0,0,0,0,0,0,0,0],"id":80,"left_children":[1,-1,3,5,-1,-1,7,9,-1,-1,-1],"loss_changes":[6.846776E11,0E0,2.2778565E11,1.0139382E11,0E0,0E0,7.0672376E10,8.714167E9,0E0,0E0,0E0],"parents":[2147483647,0,0,2,2,3,3,6,6,7,7],"right_children":[2,-1,4,6,-1,-1,8,10,-1,-1,-1],"split_conditions":[2E-2,1.4604023E4,3E0,1E0,-1.5360633E4,-7.0989995E3,3E0,2.3121387E-2,5.5159204E3,3.919875E1,-3.3565435E3],"split_indices":[9,0,2,17,0,0,1,9,0,0,0],"split_type":[0,0,0,0,0,0,0,0,0,0,0],"sum_hessian":[2.4E1,5E0,1.9E1,1.6E1,3E0,5E0,1.1E1,7E0,4E0,3E0,4E0],"tree_param":{"num_deleted":"0","num_feature":"19","num_nodes":"11","size_leaf_vector":"1"}},{"base_weights":[-4.2558853E3,5.112181E4,-1.6772904E4,-5.3333082E4,1.8668768E4,-9.027063E4,-1.8262975E4,-6.462648E3,-2.461865E3,1.6433875E3,-2.1239653E3,-1.8838293E3,2.027627E3],"categories":[],"categories_nodes":[],"categories_segments":[],"categories_sizes":[],"default_left":[0,0,0,0,0,0,0,0,0,0,0,0,0],"id":81,"left_children":[1,3,-1,5,-1,7,9,-1,-1,11,-1,-1,-1],"loss_changes":[5.1236205E11,8.2777624E11,0E0,2.2964056E10,0E0,8.032092E9,5.372463E9,0E0,0E0,1.2237228E10,0E0,0E0,0E0],"parents":[2147483647,0,0,1,1,3,3,5,5,6,6,9,9],"right_children":[2,4,-1,6,-1,8,10,-1,-1,12,-1,-1,-1],"split_conditions":[2E1,1.6E1,-1.6772904E4,1E0,1.8668768E4,7E0,9E1,-6.462648E3,-2.461865E3,5.8E1,-2.1239653E3,-1.8838293E3,2.027627E3],"split_indices":[4,4,0,15,0,4,0,0,0,0,0,0,0],"split_type":[0,0,0,0,0,0,0,0,0,0,0,0,0],"sum_hessian":[2.6E1,2.3E1,3E0,1.8E1,5E0,8E0,1E1,3E0,5E0,6E0,4E0,3E0,3E0],"tree_param":{"num_deleted":"0","num_feature":"19","num_nodes":"13","size_leaf_vector":"1"}},{"base_weights":[-1.3426521E4,1.7567691E4,-1.0395029E5,-3.3426176E4,-1.8643239E5,3.4566986E2,-4.7640863E4,-4.805863E3,-1.3764849E4,-8.833478E2,-3.4043289E3],"categories":[],"categories_nodes":[],"categories_segments":[],"categories_sizes":[],"default_left":[0,0,0,0,0,0,0,0,0,0,0],"id":82,"left_children":[1,-1,3,5,7,-1,9,-1,-1,-1,-1],"loss_changes":[8.2903427E11,0E0,1.1010779E11,7.2103373E9,4.5771555E10,0E0,4.312652E9,0E0,0E0,0E0,0E0],"parents":[2147483647,0,0,2,2,3,3,4,4,6,6],"right_children":[2,-1,4,6,8,-1,10,-1,-1,-1,-1],"split_conditions":[2E-2,1.7567691E4,9.4E1,3E0,1.1E1,3.4566986E2,8E0,-4.805863E3,-1.3764849E4,-8.833478E2,-3.4043289E3],"split_indices":[9,0,0,8,4,0,4,0,0,0,0],"split_type":[0,0,0,0,0,0,0,0,0,0,0],"sum_hessian":[2.3E1,4E0,1.9E1,1.1E1,8E0,3E0,8E0,5E0,3E0,4E0,4E0],"tree_param":{"num_deleted":"0","num_feature":"19","num_nodes":"11","size_leaf_vector":"1"}},{"base_weights":[-4.96248E3,-7.658564E4,2.1300855E4,-2.7625283E4,-1.5724055E4,-6.0115387E4,6.2743237E3,-2.063922E4,-7.9312783E3,-2.7304924E3,1.05664E3],"categories":[],"categories_nodes":[],"categories_segments":[],"categories_sizes":[],"default_left":[0,0,0,0,0,0,0,0,0,0,0],"id":83,"left_children":[1,3,-1,5,-1,7,-1,9,-1,-1,-1],"loss_changes":[8.66066E11,2.7085106E11,0E0,1.1201062E11,0E0,6.6724545E10,0E0,2.1020365E10,0E0,0E0,0E0],"parents":[2147483647,0,0,1,1,3,3,5,5,7,7],"right_children":[2,4,-1,6,-1,8,-1,10,-1,-1,-1],"split_conditions":[5E0,1.9E1,2.1300855E4,1.07E2,-1.5724055E4,1.4E1,6.2743237E3,1E0,-7.9312783E3,-2.7304924E3,1.05664E3],"split_indices":[1,4,0,0,0,4,0,15,0,0,0],"split_type":[0,0,0,0,0,0,0,0,0,0,0],"sum_hessian":[2.6E1,2.3E1,3E0,2E1,3E0,1.7E1,3E0,1.3E1,4E0,7E0,6E0],"tree_param":{"num_deleted":"0","num_feature":"19","num_nodes":"11","size_leaf_vector":"1"}},{"base_weights":[-4.630826E3,-5.269897E4,1.5448489E4,-1.0604716E5,6.028366E2,-4.733005E4,-1.1316405E4,-3.579519E4,5.0273364E3,-5.936977E4,-7.214003E2,1.4959584E4,-4.9846426E3,-3.685563E3,-1.5092909E3,2.806552E3,-1.497587E3],"categories":[],"categories_nodes":[],"categories_segments":[],"categories_sizes":[],"default_left":[0,0,0,0,0,0,0,0,0,0,0,0,0,0,0,0,0],"id":84,"left_children":[1,3,-1,5,7,9,-1,11,-1,13,-1,15,-1,-1,-1,-1,-1],"loss_changes":[4.534341E11,7.399636E10,0E0,8.110098E10,5.4527738E10,3.1047188E9,0E0,3.71656E10,0E0,7.047434E8,0E0,1.4624676E10,0E0,0E0,0E0,0E0,0E0],"parents":[2147483647,0,0,1,1,3,3,4,4,5,5,7,7,9,9,11,11],"right_children":[2,4,-1,6,8,10,-1,12,-1,14,-1,16,-1,-1,-1,-1,-1],"split_conditions":[2.56E4,1E0,1.5448489E4,2.9850746E-2,1E0,1.3E1,-1.1316405E4,1.1E1,5.0273364E3,2.3809524E-2,-7.214003E2,3.508772E-2,-4.9846426E3,-3.685563E3,-1.5092909E3,2.806552E3,-1.497587E3],"split_indices":[11,15,0,9,18,4,0,4,0,9,0,9,0,0,0,0,0],"split_type":[0,0,0,0,0,0,0,0,0,0,0,0,0,0,0,0,0],"sum_hessian":[2.8E1,2.5E1,3E0,1.2E1,1.3E1,9E0,3E0,1E1,3E0,6E0,3E0,6E0,4E0,3E0,3E0,3E0,3E0],"tree_param":{"num_deleted":"0","num_feature":"19","num_nodes":"17","size_leaf_vector":"1"}},{"base_weights":[-8.702207E4,-2.8314963E4,-1.5222305E4,-5.4570555E4,4.5175005E3,-1.8941598E4,-7.761666E4,-2.3149614E3,3.3664026E2,-2.0645527E3,-4.7475933E3],"categories":[],"categories_nodes":[],"categories_segments":[],"categories_sizes":[],"default_left":[0,0,0,0,0,0,0,0,0,0,0],"id":85,"left_children":[1,3,-1,5,-1,7,9,-1,-1,-1,-1],"loss_changes":[2.977237E11,6.724282E10,0E0,1.2488655E10,0E0,5.9308534E9,2.3764378E9,0E0,0E0,0E0,0E0],"parents":[2147483647,0,0,1,1,3,3,5,5,6,6],"right_children":[2,4,-1,6,-1,8,10,-1,-1,-1,-1],"split_conditions":[3E0,6E0,-1.5222305E4,8E0,4.5175005E3,1E0,1E0,-2.3149614E3,3.3664026E2,-2.0645527E3,-4.7475933E3],"split_indices":[2,8,0,4,0,15,15,0,0,0,0],"split_type":[0,0,0,0,0,0,0,0,0,0,0],"sum_hessian":[2.3E1,1.9E1,4E0,1.6E1,3E0,7E0,9E0,3E0,4E0,4E0,5E0],"tree_param":{"num_deleted":"0","num_feature":"19","num_nodes":"11","size_leaf_vector":"1"}},{"base_weights":[-1.9576402E4,-7.714183E4,1.6535512E4,-4.1467254E4,-1.2257393E4,-1.2503746E5,2.9665167E2,-2.175449E3,-8.765327E3,-5.8136906E4,6.439558E3,-1.2589617E3,-4.070254E3],"categories":[],"categories_nodes":[],"categories_segments":[],"categories_sizes":[],"default_left":[0,0,0,0,0,0,0,0,0,0,0,0,0],"id":86,"left_children":[1,3,-1,5,-1,7,9,-1,-1,11,-1,-1,-1],"loss_changes":[5.6995034E11,1.3367938E11,0E0,7.333168E10,0E0,2.1061116E10,1.2011341E11,0E0,0E0,6.385787E9,0E0,0E0,0E0],"parents":[2147483647,0,0,1,1,3,3,5,5,6,6,9,9],"right_children":[2,4,-1,6,-1,8,10,-1,-1,12,-1,-1,-1],"split_conditions":[3E0,3E0,1.6535512E4,1E0,-1.2257393E4,1.5E0,2.8037382E-2,-2.175449E3,-8.765327E3,1E1,6.439558E3,-1.2589617E3,-4.070254E3],"split_indices":[3,2,0,17,0,10,9,0,0,4,0,0,0],"split_type":[0,0,0,0,0,0,0,0,0,0,0,0,0],"sum_hessian":[2.6E1,2.3E1,3E0,2E1,3E0,6E0,1.4E1,3E0,3E0,1E1,4E0,5E0,5E0],"tree_param":{"num_deleted":"0","num_feature":"19","num_nodes":"13","size_leaf_vector":"1"}},{"base_weights":[-1.018876E4,-6.0076332E4,1.5207786E4,-3.1471273E4,-1.0119252E4,-5.5578594E4,4.5453145E3,-1.2183344E4,-1.2822996E5,1.2773163E3,-2.4086274E3,-8.0092705E3,-3.2108496E3],"categories":[],"categories_nodes":[],"categories_segments":[],"categories_sizes":[],"default_left":[0,0,0,0,0,0,0,0,0,0,0,0,0],"id":87,"left_children":[1,3,-1,5,-1,7,-1,9,11,-1,-1,-1,-1],"loss_changes":[4.5736526E11,9.539939E10,0E0,6.995673E10,0E0,5.833948E10,0E0,1.8882824E10,4.0322908E9,0E0,0E0,0E0,0E0],"parents":[2147483647,0,0,1,1,3,3,5,5,7,7,8,8],"right_children":[2,4,-1,6,-1,8,-1,10,12,-1,-1,-1,-1],"split_conditions":[1.73E2,3E0,1.5207786E4,1.07E2,-1.0119252E4,1.4E1,4.5453145E3,2E0,1.6E1,1.2773163E3,-2.4086274E3,-8.0092705E3,-3.2108496E3],"split_indices":[0,2,0,0,0,4,0,2,4,0,0,0,0],"split_type":[0,0,0,0,0,0,0,0,0,0,0,0,0],"sum_hessian":[2.7E1,2.4E1,3E0,2.1E1,3E0,1.8E1,3E0,1.2E1,6E0,6E0,6E0,3E0,3E0],"tree_param":{"num_deleted":"0","num_feature":"19","num_nodes":"13","size_leaf_vector":"1"}},{"base_weights":[6.276684E4,-4.108618E4,2.8317014E4,-1.1260416E4,-6.4155684E3,-2.3457178E3,4.533752E3,-1.99297E4,1.6159419E3,2.229875E1,-1.7661488E3],"categories":[],"categories_nodes":[],"categories_segments":[],"categories_sizes":[],"default_left":[0,0,0,0,0,0,0,0,0,0,0],"id":88,"left_children":[1,3,-1,5,-1,-1,7,9,-1,-1,-1],"loss_changes":[1.2261141E12,5.0586296E10,0E0,9.222691E9,0E0,0E0,8.800735E9,2.2112952E9,0E0,0E0,0E0],"parents":[2147483647,0,0,1,1,3,3,6,6,7,7],"right_children":[2,4,-1,6,-1,-1,8,10,-1,-1,-1],"split_conditions":[1.6E1,2E0,2.8317014E4,4E0,-6.4155684E3,-2.3457178E3,1E0,3E0,1.6159419E3,2.229875E1,-1.7661488E3],"split_indices":[4,10,0,4,0,0,15,8,0,0,0],"split_type":[0,0,0,0,0,0,0,0,0,0,0],"sum_hessian":[2.2E1,1.9E1,3E0,1.5E1,4E0,4E0,1.1E1,6E0,5E0,3E0,3E0],"tree_param":{"num_deleted":"0","num_feature":"19","num_nodes":"11","size_leaf_vector":"1"}},{"base_weights":[-7.52536E4,-2.0489082E4,-1.6513139E4,-5.3370617E4,4.441482E3,-7.6835137E3,-6.41176E3,1.3118065E4,-2.368291E3,-1.066519E3,2.6449568E3],"categories":[],"categories_nodes":[],"categories_segments":[],"categories_sizes":[],"default_left":[0,0,0,0,0,0,0,0,0,0,0],"id":89,"left_children":[1,3,-1,5,-1,7,-1,9,-1,-1,-1],"loss_changes":[3.1443865E11,7.663223E10,0E0,5.3740216E10,0E0,9.701351E9,0E0,1.2091529E10,0E0,0E0,0E0],"parents":[2147483647,0,0,1,1,3,3,5,5,7,7],"right_children":[2,4,-1,6,-1,8,-1,10,-1,-1,-1],"split_conditions":[2E1,1.03E2,-1.6513139E4,1.4E1,4.441482E3,2E0,-6.41176E3,1E0,-2.368291E3,-1.066519E3,2.6449568E3],"split_indices":[4,0,0,4,0,3,0,15,0,0,0],"split_type":[0,0,0,0,0,0,0,0,0,0,0],"sum_hessian":[2.2E1,1.9E1,3E0,1.5E1,4E0,1E1,5E0,7E0,3E0,4E0,3E0],"tree_param":{"num_deleted":"0","num_feature":"19","num_nodes":"11","size_leaf_vector":"1"}},{"base_weights":[4.6373242E4,2.1888832E4,-3.846816E4,1.2147318E4,-9.13105E3,-3.3111105E4,6.860141E4,-2.0294136E2,-3.4205864E3,8.201231E3,-2.1986074E3],"categories":[],"categories_nodes":[],"categories_segments":[],"categories_sizes":[],"default_left":[0,0,0,0,0,0,0,0,0,0,0],"id":90,"left_children":[1,-1,3,5,-1,7,9,-1,-1,-1,-1],"loss_changes":[7.4739915E11,0E0,1.4084928E11,4.059682E10,0E0,8.952394E9,8.240745E10,0E0,0E0,0E0,0E0],"parents":[2147483647,0,0,2,2,3,3,5,5,6,6],"right_children":[2,-1,4,6,-1,8,10,-1,-1,-1,-1],"split_conditions":[2E-2,2.1888832E4,3E0,5E0,-9.13105E3,4E0,2E0,-2.0294136E2,-3.4205864E3,8.201231E3,-2.1986074E3],"split_indices":[9,0,2,8,0,8,3,0,0,0,0],"split_type":[0,0,0,0,0,0,0,0,0,0,0],"sum_hessian":[2.1E1,3E0,1.8E1,1.4E1,4E0,8E0,6E0,5E0,3E0,3E0,3E0],"tree_param":{"num_deleted":"0","num_feature":"19","num_nodes":"11","size_leaf_vector":"1"}},{"base_weights":[-9.911958E4,-5.0051574E4,-1.2716883E4,-8.005003E4,4.872718E3,-6.149209E4,-6.4814897E3,-7.212729E4,-7.106722E2,-2.4219724E3,-5.3696543E3],"categories":[],"categories_nodes":[],"categories_segments":[],"categories_sizes":[],"default_left":[0,0,0,0,0,0,0,0,0,0,0],"id":91,"left_children":[1,3,-1,5,-1,7,-1,9,-1,-1,-1],"loss_changes":[1.8529226E11,1.0072517E11,0E0,8.590549E9,0E0,6.51708E9,0E0,4.822368E9,0E0,0E0,0E0],"parents":[2147483647,0,0,1,1,3,3,5,5,7,7],"right_children":[2,4,-1,6,-1,8,-1,10,-1,-1,-1],"split_conditions":[3E0,1.07E2,-1.2716883E4,9E1,4.872718E3,8E1,-6.4814897E3,5E0,-7.106722E2,-2.4219724E3,-5.3696543E3],"split_indices":[2,0,0,0,0,0,0,8,0,0,0],"split_type":[0,0,0,0,0,0,0,0,0,0,0],"sum_hessian":[2.5E1,2E1,5E0,1.7E1,3E0,1.4E1,3E0,1.1E1,3E0,8E0,3E0],"tree_param":{"num_deleted":"0","num_feature":"19","num_nodes":"11","size_leaf_vector":"1"}},{"base_weights":[7.4330825E3,-6.0657875E4,1.7301482E4,-2.6248494E4,-7.931816E3,-7.064902E4,4.2781226E3,-1.4348696E3,-6.9812007E3,-2.0410442E3,1.9154918E3],"categories":[],"categories_nodes":[],"categories_segments":[],"categories_sizes":[],"default_left":[0,0,0,0,0,0,0,0,0,0,0],"id":92,"left_children":[1,3,-1,5,-1,7,-1,9,-1,-1,-1],"loss_changes":[5.512629E11,6.326357E10,0E0,8.547634E10,0E0,5.708818E10,0E0,1.252154E10,0E0,0E0,0E0],"parents":[2147483647,0,0,1,1,3,3,5,5,7,7],"right_children":[2,4,-1,6,-1,8,-1,10,-1,-1,-1],"split_conditions":[5E0,1.7E1,1.7301482E4,1.07E2,-7.931816E3,1.1E1,4.2781226E3,4E0,-6.9812007E3,-2.0410442E3,1.9154918E3],"split_indices":[1,4,0,0,0,4,0,4,0,0,0],"split_type":[0,0,0,0,0,0,0,0,0,0,0],"sum_hessian":[2.2E1,1.9E1,3E0,1.5E1,4E0,1.1E1,4E0,6E0,5E0,3E0,3E0],"tree_param":{"num_deleted":"0","num_feature":"19","num_nodes":"11","size_leaf_vector":"1"}},{"base_weights":[-1.3007135E4,-9.1427984E4,1.7156922E4,-2.893844E4,-1.5145338E4,-7.182822E4,5.348274E3,-2.879642E4,-7.534634E3,-3.2003464E2,-2.2716423E3],"categories":[],"categories_nodes":[],"categories_segments":[],"categories_sizes":[],"default_left":[0,0,0,0,0,0,0,0,0,0,0],"id":93,"left_children":[1,3,-1,5,-1,7,-1,9,-1,-1,-1],"loss_changes":[6.1788645E11,2.2910815E11,0E0,9.511646E10,0E0,3.6384723E10,0E0,3.0624558E9,0E0,0E0,0E0],"parents":[2147483647,0,0,1,1,3,3,5,5,7,7],"right_children":[2,4,-1,6,-1,8,-1,10,-1,-1,-1],"split_conditions":[5E0,1.7E1,1.7156922E4,1.03E2,-1.5145338E4,1.4E1,5.348274E3,5.5E1,-7.534634E3,-3.2003464E2,-2.2716423E3],"split_indices":[1,4,0,0,0,4,0,0,0,0,0],"split_type":[0,0,0,0,0,0,0,0,0,0,0],"sum_hessian":[2E1,1.7E1,3E0,1.4E1,3E0,1.1E1,3E0,8E0,3E0,4E0,4E0],"tree_param":{"num_deleted":"0","num_feature":"19","num_nodes":"11","size_leaf_vector":"1"}},{"base_weights":[-7.8914484E4,-2.3901576E4,-1.2456921E4,-6.862469E4,5.176116E4,-2.1341934E4,-7.0004346E3,7.797353E3,-2.096989E3,4.6258652E2,-2.3833616E3],"categories":[],"categories_nodes":[],"categories_segments":[],"categories_sizes":[],"default_left":[0,0,0,0,0,0,0,0,0,0,0],"id":94,"left_children":[1,3,-1,5,7,9,-1,-1,-1,-1,-1],"loss_changes":[2.2815795E11,7.122954E10,0E0,4.088994E10,8.463894E10,7.6894925E9,0E0,0E0,0E0,0E0,0E0],"parents":[2147483647,0,0,1,1,3,3,4,4,5,5],"right_children":[2,4,-1,6,8,10,-1,-1,-1,-1,-1],"split_conditions":[3E0,5E0,-1.2456921E4,2E0,2E0,3E0,-7.0004346E3,7.797353E3,-2.096989E3,4.6258652E2,-2.3833616E3],"split_indices":[2,8,0,2,3,8,0,0,0,0,0],"split_type":[0,0,0,0,0,0,0,0,0,0,0],"sum_hessian":[2.4E1,1.9E1,5E0,1.2E1,7E0,8E0,4E0,3E0,4E0,4E0,4E0],"tree_param":{"num_deleted":"0","num_feature":"19","num_nodes":"11","size_leaf_vector":"1"}},{"base_weights":[-2.6277979E4,2.153827E5,-1.0954532E5,-2.5239426E3,2.136993E4,-1.1302099E4,-2.0665833E5,-1.6212734E3,1.0265509E3,-4.331691E3,-1.5467804E4],"categories":[],"categories_nodes":[],"categories_segments":[],"categories_sizes":[],"default_left":[0,0,0,0,0,0,0,0,0,0,0],"id":95,"left_children":[1,3,5,-1,-1,7,9,-1,-1,-1,-1],"loss_changes":[5.4677766E11,4.1614275E11,1.8847823E11,0E0,0E0,8.0623785E9,9.646172E10,0E0,0E0,0E0,0E0],"parents":[2147483647,0,0,1,1,2,2,5,5,6,6],"right_children":[2,4,6,-1,-1,8,10,-1,-1,-1,-1],"split_conditions":[2.173913E-2,7.1E1,9E1,-2.5239426E3,2.136993E4,4E0,1.1E1,-1.6212734E3,1.0265509E3,-4.331691E3,-1.5467804E4],"split_indices":[9,0,0,0,0,5,4,0,0,0,0],"split_type":[0,0,0,0,0,0,0,0,0,0,0],"sum_hessian":[2.5E1,6E0,1.9E1,3E0,3E0,1E1,9E0,6E0,4E0,5E0,4E0],"tree_param":{"num_deleted":"0","num_feature":"19","num_nodes":"11","size_leaf_vector":"1"}},{"base_weights":[-2.4437371E4,-8.229962E4,1.5718992E4,-2.6860654E4,-1.8289008E5,-4.0625735E3,-1.9594187E3,-4.0460378E3,-1.323146E4,2.3823486E4,-1.585646E3,-1.1792605E3,3.263817E3],"categories":[],"categories_nodes":[],"categories_segments":[],"categories_sizes":[],"default_left":[0,0,0,0,0,0,0,0,0,0,0,0,0],"id":96,"left_children":[1,3,-1,5,7,-1,9,-1,-1,11,-1,-1,-1],"loss_changes":[5.355962E11,1.23349926E11,0E0,2.151116E10,4.5264994E10,0E0,9.961093E9,0E0,0E0,1.5296139E10,0E0,0E0,0E0],"parents":[2147483647,0,0,1,1,3,3,4,4,6,6,9,9],"right_children":[2,4,-1,6,8,-1,10,-1,-1,12,-1,-1,-1],"split_conditions":[3E0,1.5E0,1.5718992E4,1.923077E-2,1.1E1,-4.0625735E3,1E0,-4.0460378E3,-1.323146E4,2.5E3,-1.585646E3,-1.1792605E3,3.263817E3],"split_indices":[3,10,0,9,4,0,16,0,0,11,0,0,0],"split_type":[0,0,0,0,0,0,0,0,0,0,0,0,0],"sum_hessian":[2.5E1,2.2E1,3E0,1.5E1,7E0,4E0,1.1E1,4E0,3E0,6E0,5E0,3E0,3E0],"tree_param":{"num_deleted":"0","num_feature":"19","num_nodes":"13","size_leaf_vector":"1"}},{"base_weights":[-5.157081E3,-5.750415E4,1.4202052E4,-1.5901275E4,-1.4438155E5,-5.091402E4,5.0932725E3,-1.6468864E3,-1.0986497E4,-5.0230075E2,-3.7600378E3],"categories":[],"categories_nodes":[],"categories_segments":[],"categories_sizes":[],"default_left":[0,0,0,0,0,0,0,0,0,0,0],"id":97,"left_children":[1,3,-1,5,7,9,-1,-1,-1,-1,-1],"loss_changes":[3.9480037E11,7.7219815E10,0E0,7.115975E10,5.154236E10,1.2147685E10,0E0,0E0,0E0,0E0,0E0],"parents":[2147483647,0,0,1,1,3,3,4,4,5,5],"right_children":[2,4,-1,6,8,10,-1,-1,-1,-1,-1],"split_conditions":[1.73E2,4E0,1.4202052E4,8.3E1,1E0,3E0,5.0932725E3,-1.6468864E3,-1.0986497E4,-5.0230075E2,-3.7600378E3],"split_indices":[0,1,0,0,17,8,0,0,0,0,0],"split_type":[0,0,0,0,0,0,0,0,0,0,0],"sum_hessian":[2.4E1,2.1E1,3E0,1.5E1,6E0,1.2E1,3E0,3E0,3E0,5E0,7E0],"tree_param":{"num_deleted":"0","num_feature":"19","num_nodes":"11","size_leaf_vector":"1"}},{"base_weights":[1.714899E4,1.5418995E4,-5.651618E4,6.8269507E3,-1.239555E4,6.4125363E4,-5.848712E4,-3.9097937E2,7.8005737E3,-2.2153001E2,-4.5017446E3],"categories":[],"categories_nodes":[],"categories_segments":[],"categories_sizes":[],"default_left":[0,0,0,0,0,0,0,0,0,0,0],"id":98,"left_children":[1,-1,3,5,-1,7,9,-1,-1,-1,-1],"loss_changes":[5.3231426E11,0E0,2.4416341E11,6.3628788E10,0E0,6.0716642E10,1.3243986E10,0E0,0E0,0E0,0E0],"parents":[2147483647,0,0,2,2,3,3,5,5,6,6],"right_children":[2,-1,4,6,-1,8,10,-1,-1,-1,-1],"split_conditions":[2E-2,1.5418995E4,1.3E2,2E0,-1.239555E4,6.3E1,1E0,-3.9097937E2,7.8005737E3,-2.2153001E2,-4.5017446E3],"split_indices":[9,0,0,3,0,0,17,0,0,0,0],"split_type":[0,0,0,0,0,0,0,0,0,0,0],"sum_hessian":[2.3E1,4E0,1.9E1,1.5E1,4E0,8E0,7E0,5E0,3E0,3E0,4E0],"tree_param":{"num_deleted":"0","num_feature":"19","num_nodes":"11","size_leaf_vector":"1"}},{"base_weights":[-3.008317E4,-9.283341E4,1.5343817E4,-3.48023E4,-2.0392386E5,-9.737179E3,-4.149255E3,-4.737844E3,-1.3105491E4,1.9461146E3,-4.3102934E4,-2.6235896E3,-1.1479159E3],"categories":[],"categories_nodes":[],"categories_segments":[],"categories_sizes":[],"default_left":[0,0,0,0,0,0,0,0,0,0,0,0,0],"id":99,"left_children":[1,3,-1,5,7,9,-1,-1,-1,-1,11,-1,-1],"loss_changes":[5.359513E11,1.2828367E11,0E0,1.7307564E10,1.9627147E10,1.9536822E10,0E0,0E0,0E0,0E0,1.1645235E8,0E0,0E0],"parents":[2147483647,0,0,1,1,3,3,4,4,5,5,10,10],"right_children":[2,4,-1,6,8,10,-1,-1,-1,-1,12,-1,-1],"split_conditions":[3E0,1.5E0,1.5343817E4,1.4E1,1.1E1,7E1,-4.149255E3,-4.737844E3,-1.3105491E4,1.9461146E3,5E0,-2.6235896E3,-1.1479159E3],"split_indices":[3,10,0,4,4,0,0,0,0,0,8,0,0],"split_type":[0,0,0,0,0,0,0,0,0,0,0,0,0],"sum_hessian":[2.3E1,2E1,3E0,1.4E1,6E0,1E1,4E0,3E0,3E0,4E0,6E0,3E0,3E0],"tree_param":{"num_deleted":"0","num_feature":"19","num_nodes":"13","size_leaf_vector":"1"}},{"base_weights":[4.3541685E3,-4.5202766E4,1.3791439E4,-8.990294E4,7.6703887E3,-3.649153E4,-9.380142E3,-5.700769E4,6.7554487E3,-3.0725652E3,-6.8848724E2,-6.0902924E2,-4.073391E3],"categories":[],"categories_nodes":[],"categories_segments":[],"categories_sizes":[],"default_left":[0,0,0,0,0,0,0,0,0,0,0,0,0],"id":100,"left_children":[1,3,-1,5,7,9,-1,11,-1,-1,-1,-1,-1],"loss_changes":[3.488045E11,5.268526E10,0E0,5.577352E10,9.836957E10,4.2579988E9,0E0,7.7794796E9,0E0,0E0,0E0,0E0,0E0],"parents":[2147483647,0,0,1,1,3,3,4,4,5,5,7,7],"right_children":[2,4,-1,6,8,10,-1,12,-1,-1,-1,-1,-1],"split_conditions":[1.6E2,1E0,1.3791439E4,1.5E0,1.5E0,1.5873017E-2,-9.380142E3,1E1,6.7554487E3,-3.0725652E3,-6.8848724E2,-6.0902924E2,-4.073391E3],"split_indices":[0,15,0,10,10,9,0,4,0,0,0,0,0],"split_type":[0,0,0,0,0,0,0,0,0,0,0,0,0],"sum_hessian":[2.4E1,2.1E1,3E0,1.1E1,1E1,8E0,3E0,7E0,3E0,3E0,5E0,3E0,4E0],"tree_param":{"num_deleted":"0","num_feature":"19","num_nodes":"13","size_leaf_vector":"1"}},{"base_weights":[-2.611726E4,-7.987014E4,1.4474555E4,-2.7083506E4,-1.7545962E5,-4.1153804E3,-1.8164968E3,-3.375888E3,-1.3326102E4,-1.3250165E3,1.3837948E4,2.110733E3,-1.2546199E3],"categories":[],"categories_nodes":[],"categories_segments":[],"categories_sizes":[],"default_left":[0,0,0,0,0,0,0,0,0,0,0,0,0],"id":101,"left_children":[1,3,-1,5,7,-1,9,-1,-1,-1,11,-1,-1],"loss_changes":[4.64208E11,1.1130243E11,0E0,2.2176043E10,6.0640575E10,0E0,5.003652E9,0E0,0E0,0E0,9.896989E9,0E0,0E0],"parents":[2147483647,0,0,1,1,3,3,4,4,6,6,10,10],"right_children":[2,4,-1,6,8,-1,10,-1,-1,-1,12,-1,-1],"split_conditions":[3E0,9E1,1.4474555E4,1.923077E-2,9E0,-4.1153804E3,5E1,-3.375888E3,-1.3326102E4,-1.3250165E3,7E1,2.110733E3,-1.2546199E3],"split_indices":[3,0,0,9,4,0,0,0,0,0,0,0,0],"split_type":[0,0,0,0,0,0,0,0,0,0,0,0,0],"sum_hessian":[2.5E1,2.2E1,3E0,1.5E1,7E0,4E0,1.1E1,4E0,3E0,4E0,7E0,4E0,3E0],"tree_param":{"num_deleted":"0","num_feature":"19","num_nodes":"13","size_leaf_vector":"1"}},{"base_weights":[1.937835E3,4.6025324E4,-1.4255765E4,-3.609621E4,1.6288991E4,-4.4632974E3,-1.833474E4,-2.2105937E2,-2.575315E3,-9.4606165E2,7.9196136E2],"categories":[],"categories_nodes":[],"categories_segments":[],"categories_sizes":[],"default_left":[0,0,0,0,0,0,0,0,0,0,0],"id":102,"left_children":[1,3,-1,5,-1,-1,7,9,-1,-1,-1],"loss_changes":[3.801306E11,6.0908005E11,0E0,1.8195147E10,0E0,0E0,1.0203212E10,3.9036598E9,0E0,0E0,0E0],"parents":[2147483647,0,0,1,1,3,3,6,6,7,7],"right_children":[2,4,-1,6,-1,-1,8,10,-1,-1,-1],"split_conditions":[2E1,1.6E1,-1.4255765E4,3E0,1.6288991E4,-4.4632974E3,1.1E1,1E0,-2.575315E3,-9.4606165E2,7.9196136E2],"split_indices":[4,4,0,4,0,0,4,17,0,0,0],"split_type":[0,0,0,0,0,0,0,0,0,0,0],"sum_hessian":[2.8E1,2.5E1,3E0,2E1,5E0,4E0,1.6E1,1.1E1,5E0,5E0,6E0],"tree_param":{"num_deleted":"0","num_feature":"19","num_nodes":"11","size_leaf_vector":"1"}},{"base_weights":[3.154069E3,-4.9702734E4,1.33324795E4,-8.1243E3,-5.5527417E3,1.2590482E3,-3.2087723E4,3.66264E2,-3.6666035E3],"categories":[],"categories_nodes":[],"categories_segments":[],"categories_sizes":[],"default_left":[0,0,0,0,0,0,0,0,0],"id":103,"left_children":[1,3,-1,5,-1,-1,7,-1,-1],"loss_changes":[3.3358643E11,5.011623E10,0E0,1.1183405E10,0E0,0E0,1.3541692E10,0E0,0E0],"parents":[2147483647,0,0,1,1,3,3,6,6],"right_children":[2,4,-1,6,-1,-1,8,-1,-1],"split_conditions":[1.6E2,1.4E1,1.33324795E4,2E0,-5.5527417E3,1.2590482E3,1E1,3.66264E2,-3.6666035E3],"split_indices":[0,4,0,2,0,0,4,0,0],"split_type":[0,0,0,0,0,0,0,0,0],"sum_hessian":[2.2E1,1.9E1,3E0,1.2E1,7E0,5E0,7E0,4E0,3E0],"tree_param":{"num_deleted":"0","num_feature":"19","num_nodes":"9","size_leaf_vector":"1"}},{"base_weights":[1.3160477E4,7.670011E4,-1.1546109E4,-3.1299818E4,1.9267994E4,-4.438005E3,-2.3360647E3,3.0130356E3,-3.3342457E4,1.5588774E2,-3.5291067E3],"categories":[],"categories_nodes":[],"categories_segments":[],"categories_sizes":[],"default_left":[0,0,0,0,0,0,0,0,0,0,0],"id":104,"left_children":[1,3,-1,5,-1,-1,7,-1,9,-1,-1],"loss_changes":[3.7441697E11,6.4543116E11,0E0,2.475662E10,0E0,0E0,2.3359138E10,0E0,1.1082195E10,0E0,0E0],"parents":[2147483647,0,0,1,1,3,3,6,6,8,8],"right_children":[2,4,-1,6,-1,-1,8,-1,10,-1,-1],"split_conditions":[1.8E1,1.4E1,-1.1546109E4,3E0,1.9267994E4,-4.438005E3,2E0,3.0130356E3,1E1,1.5588774E2,-3.5291067E3],"split_indices":[4,4,0,4,0,0,2,0,4,0,0],"split_type":[0,0,0,0,0,0,0,0,0,0,0],"sum_hessian":[2.2E1,1.8E1,4E0,1.4E1,4E0,4E0,1E1,3E0,7E0,4E0,3E0],"tree_param":{"num_deleted":"0","num_feature":"19","num_nodes":"11","size_leaf_vector":"1"}},{"base_weights":[1.1142968E4,-4.2963582E4,1.5973495E4,4.1284824E3,-1.3384151E4,-2.4493354E4,6.23696E3,-4.3803887E4,-6.595584E3,3.839105E2,-3.8114402E3,7.689965E2,-1.1904633E3],"categories":[],"categories_nodes":[],"categories_segments":[],"categories_sizes":[],"default_left":[0,0,0,0,0,0,0,0,0,0,0,0,0],"id":105,"left_children":[1,3,-1,5,-1,7,-1,9,11,-1,-1,-1,-1],"loss_changes":[4.474708E11,2.4450274E11,0E0,7.209729E10,0E0,5.5865457E9,0E0,1.3939728E10,4.1489802E9,0E0,0E0,0E0,0E0],"parents":[2147483647,0,0,1,1,3,3,5,5,7,7,8,8],"right_children":[2,4,-1,6,-1,8,-1,10,12,-1,-1,-1,-1],"split_conditions":[5E0,1.3E2,1.5973495E4,1.07E2,-1.3384151E4,2E0,6.23696E3,5.5E1,7E1,3.839105E2,-3.8114402E3,7.689965E2,-1.1904633E3],"split_indices":[1,0,0,0,0,1,0,0,0,0,0,0,0],"split_type":[0,0,0,0,0,0,0,0,0,0,0,0,0],"sum_hessian":[2.5E1,2.2E1,3E0,1.9E1,3E0,1.6E1,3E0,7E0,9E0,3E0,4E0,4E0,5E0],"tree_param":{"num_deleted":"0","num_feature":"19","num_nodes":"13","size_leaf_vector":"1"}},{"base_weights":[-2.4947686E4,1.8998111E5,-9.892538E4,-2.3466816E3,1.897003E4,-3.1979082E4,-2.1868578E5,1.910775E3,-5.8590723E3,-5.71784E3,-1.3417164E4,-2.1078504E4,1.6856815E3,-1.6333081E3,-2.110597E2],"categories":[],"categories_nodes":[],"categories_segments":[],"categories_sizes":[],"default_left":[0,0,0,0,0,0,0,0,0,0,0,0,0,0,0],"id":106,"left_children":[1,3,5,-1,-1,7,9,11,-1,-1,-1,13,-1,-1,-1],"loss_changes":[4.3219232E11,3.3194053E11,1.5335691E11,0E0,0E0,4.064886E10,5.5781294E9,8.753007E9,0E0,0E0,0E0,1.2294633E9,0E0,0E0,0E0],"parents":[2147483647,0,0,1,1,2,2,5,5,6,6,7,7,11,11],"right_children":[2,4,6,-1,-1,8,10,12,-1,-1,-1,14,-1,-1,-1],"split_conditions":[2.173913E-2,1.8181818E-2,1.1E1,-2.3466816E3,1.897003E4,3.5714287E-2,1.03E2,2.9850746E-2,-5.8590723E3,-5.71784E3,-1.3417164E4,3E0,1.6856815E3,-1.6333081E3,-2.110597E2],"split_indices":[9,9,4,0,0,9,0,9,0,0,0,4,0,0,0],"split_type":[0,0,0,0,0,0,0,0,0,0,0,0,0,0,0],"sum_hessian":[2.5E1,6E0,1.9E1,3E0,3E0,1.3E1,6E0,1E1,3E0,3E0,3E0,6E0,4E0,3E0,3E0],"tree_param":{"num_deleted":"0","num_feature":"19","num_nodes":"15","size_leaf_vector":"1"}},{"base_weights":[4.7573375E4,-1.779945E3,1.4122333E4,-5.7108617E4,5.925958E4,-5.4034875E2,-7.312084E4,5.718939E3,1.725148E2,-4.7200215E3,-1.4120565E3],"categories":[],"categories_nodes":[],"categories_segments":[],"categories_sizes":[],"default_left":[0,0,0,0,0,0,0,0,0,0,0],"id":107,"left_children":[1,3,-1,5,7,-1,9,-1,-1,-1,-1],"loss_changes":[2.6711366E11,7.092894E10,0E0,7.3650954E9,3.0366974E10,0E0,4.9741865E9,0E0,0E0,0E0,0E0],"parents":[2147483647,0,0,1,1,3,3,4,4,6,6],"right_children":[2,4,-1,6,8,-1,10,-1,-1,-1,-1],"split_conditions":[1.3E2,1E0,1.4122333E4,6.3E1,3.1914894E-2,-5.4034875E2,4E0,5.718939E3,1.725148E2,-4.7200215E3,-1.4120565E3],"split_indices":[0,15,0,0,9,0,8,0,0,0,0],"split_type":[0,0,0,0,0,0,0,0,0,0,0],"sum_hessian":[2.2E1,1.9E1,3E0,1E1,9E0,3E0,7E0,4E0,5E0,4E0,3E0],"tree_param":{"num_deleted":"0","num_feature":"19","num_nodes":"11","size_leaf_vector":"1"}},{"base_weights":[1.7275778E3,-7.744087E4,1.688808E4,-4.2417414E4,-6.729048E3,-3.7595044E3,-8.266905E3,-1.0995792E3,3.7622375E2],"categories":[],"categories_nodes":[],"categories_segments":[],"categories_sizes":[],"default_left":[0,0,0,0,0,0,0,0,0],"id":108,"left_children":[1,3,-1,5,-1,-1,7,-1,-1],"loss_changes":[5.5822234E11,2.8312543E10,0E0,1.2808843E10,0E0,0E0,1.6825979E9,0E0,0E0],"parents":[2147483647,0,0,1,1,3,3,6,6],"right_children":[2,4,-1,6,-1,-1,8,-1,-1],"split_conditions":[5E0,9.4E1,1.688808E4,1.923077E-2,-6.729048E3,-3.7595044E3,4.9E1,-1.0995792E3,3.7622375E2],